{"learner":{"attributes":{"scikit_learn":"{\"_estimator_type\": \"classifier\"}"},"feature_names":["t","wind_speed","vpd","u","v","q","advection_T","advection_q","advection_zeta"],"feature_types":["float","float","float","float","float","float","float","float","float"],"gradient_booster":{"model":{"gbtree_model_param":{"num_parallel_tree":"1","num_trees":"127"},"iteration_indptr":[0,1,2,3,4,5,6,7,8,9,10,11,12,13,14,15,16,17,18,19,20,21,22,23,24,25,26,27,28,29,30,31,32,33,34,35,36,37,38,39,40,41,42,43,44,45,46,47,48,49,50,51,52,53,54,55,56,57,58,59,60,61,62,63,64,65,66,67,68,69,70,71,72,73,74,75,76,77,78,79,80,81,82,83,84,85,86,87,88,89,90,91,92,93,94,95,96,97,98,99,100,101,102,103,104,105,106,107,108,109,110,111,112,113,114,115,116,117,118,119,120,121,122,123,124,125,126,127],"tree_info":[0,0,0,0,0,0,0,0,0,0,0,0,0,0,0,0,0,0,0,0,0,0,0,0,0,0,0,0,0,0,0,0,0,0,0,0,0,0,0,0,0,0,0,0,0,0,0,0,0,0,0,0,0,0,0,0,0,0,0,0,0,0,0,0,0,0,0,0,0,0,0,0,0,0,0,0,0,0,0,0,0,0,0,0,0,0,0,0,0,0,0,0,0,0,0,0,0,0,0,0,0,0,0,0,0,0,0,0,0,0,0,0,0,0,0,0,0,0,0,0,0,0,0,0,0,0,0],"trees":[{"base_weights":[-2.0677898E-2,3.0853453E-1,-1.1739831E0,-7.337014E-1,4.965446E-1,1.362844E0,-1.5711118E0,-1.8017561E0,3.8677955E-1,1.0415254E0,2.5892055E-1,1.7203838E0,-1.6601382E-1,-1.9488597E0,-1.1184701E-1,-2.3071232E-1,1.631086E-1,-2.0719603E-1,7.895585E-1,1.679817E0,5.4641175E-1,7.683925E-1,-1.7928228E-1,7.804512E-2,2.1398936E-1,1.631086E-1,-2.3337701E-1,1.4687483E0,-2.2211926E-1,1.2406082E0,-7.457483E-1,9.9278075E-1,2.0917125E-1,-1.6215111E-1,1.3925484E0,8.982199E-1,-1.1181157E-1,-7.376705E-1,3.2943216E-1,5.723044E-2,1.9166331E-1,8.7009974E-2,1.8223174E-1,-1.9166698E-1,8.630109E-3,1.7270762E-1,-0E0,1.5922216E-1,-9.613518E-2,-1.3704056E-1,1.7395335E-1,8.255434E-2,1.8912996E-1,-2.1669145E-1,1.7400908E-1,1.01630054E-1,-1.2706375E-1,6.849815E-2,-1.4306118E-1],"categories":[],"categories_nodes":[],"categories_segments":[],"categories_sizes":[],"default_left":[0,0,0,0,0,0,0,0,0,0,0,0,0,0,0,0,0,0,0,0,0,0,0,0,0,0,0,0,0,0,0,0,0,0,0,0,0,0,0,0,0,0,0,0,0,0,0,0,0,0,0,0,0,0,0,0,0,0,0],"id":0,"left_children":[1,3,5,7,9,11,13,15,17,19,21,23,-1,25,27,-1,-1,-1,29,31,33,35,37,-1,-1,-1,-1,39,-1,41,43,45,-1,47,49,51,53,55,57,-1,-1,-1,-1,-1,-1,-1,-1,-1,-1,-1,-1,-1,-1,-1,-1,-1,-1,-1,-1],"loss_changes":[2.6413892E2,1.05944145E2,1.569449E2,9.961534E1,5.8651558E1,2.2602798E1,7.288791E1,3.01669E1,3.605092E1,4.230812E1,7.185498E1,1.0764313E0,0E0,3.1664062E1,8.34207E1,0E0,0E0,0E0,2.475467E1,3.6560974E0,4.8087296E1,1.7381592E1,4.9229347E1,0E0,0E0,0E0,0E0,1.6181183E0,0E0,2.91465E0,6.814081E0,5.6712713E0,0E0,4.5627632E1,1.2614662E1,1.58218155E1,5.7065914E1,5.0098793E1,3.802609E1,0E0,0E0,0E0,0E0,0E0,0E0,0E0,0E0,0E0,0E0,0E0,0E0,0E0,0E0,0E0,0E0,0E0,0E0,0E0,0E0],"parents":[2147483647,0,0,1,1,2,2,3,3,4,4,5,5,6,6,7,7,8,8,9,9,10,10,11,11,13,13,14,14,18,18,19,19,20,20,21,21,22,22,27,27,29,29,30,30,31,31,33,33,34,34,35,35,36,36,37,37,38,38],"right_children":[2,4,6,8,10,12,14,16,18,20,22,24,-1,26,28,-1,-1,-1,30,32,34,36,38,-1,-1,-1,-1,40,-1,42,44,46,-1,48,50,52,54,56,58,-1,-1,-1,-1,-1,-1,-1,-1,-1,-1,-1,-1,-1,-1,-1,-1,-1,-1,-1,-1],"split_conditions":[-1.8553627E1,7.214518E1,-2.2769522E1,6.9073054E-9,-2.5707996E-8,-1.6477554E1,1.3651807E-3,8.786677E-8,-3.0058725E1,3.27541E-4,-7.8182106E0,-1.7877125E1,-1.6601382E-1,-1.9328967E-8,-9.89267E0,-2.3071232E-1,1.631086E-1,-2.0719603E-1,5.2596594E-4,-3.104122E0,1.0402126E-8,7.0209204E-8,5.123794E0,7.804512E-2,2.1398936E-1,1.631086E-1,-2.3337701E-1,-1.7167667E1,-2.2211926E-1,-2.7948954E1,-2.7326828E1,-1.3702497E1,2.0917125E-1,-8.125662E0,4.0957797E-4,7.712987E-9,-1.9602697E1,-8.381469E-9,9.232986E-4,5.723044E-2,1.9166331E-1,8.7009974E-2,1.8223174E-1,-1.9166698E-1,8.630109E-3,1.7270762E-1,-0E0,1.5922216E-1,-9.613518E-2,-1.3704056E-1,1.7395335E-1,8.255434E-2,1.8912996E-1,-2.1669145E-1,1.7400908E-1,1.01630054E-1,-1.2706375E-1,6.849815E-2,-1.4306118E-1],"split_indices":[0,2,4,8,7,0,5,7,0,5,4,0,0,8,4,0,0,0,5,4,8,7,4,0,0,0,0,0,0,0,0,4,0,4,5,8,0,8,5,0,0,0,0,0,0,0,0,0,0,0,0,0,0,0,0,0,0,0,0],"split_type":[0,0,0,0,0,0,0,0,0,0,0,0,0,0,0,0,0,0,0,0,0,0,0,0,0,0,0,0,0,0,0,0,0,0,0,0,0,0,0,0,0,0,0,0,0,0,0,0,0,0,0,0,0,0,0,0,0,0,0],"sum_hessian":[6.9366455E2,5.396463E2,1.5401826E2,8.188637E1,4.5775992E2,2.0525509E1,1.3349275E2,4.1951206E1,3.993516E1,1.378953E2,3.1986462E2,1.8526562E1,1.9989477E0,1.0566766E2,2.7825089E1,3.9729088E1,2.2221196E0,5.746975E0,3.4188187E1,5.9301018E1,7.8594284E1,1.481666E2,1.7169803E2,2.971725E0,1.5554837E1,2.2221196E0,1.0344555E2,1.4831928E1,1.299316E1,2.6718828E1,7.4693575E0,1.1387163E1,4.7913853E1,4.2737106E1,3.5857174E1,1.2953325E2,1.8633348E1,8.213624E1,8.95618E1,3.2215934E0,1.1610334E1,1.2386637E1,1.4332191E1,3.4981585E0,3.9711988E0,7.1660957E0,4.2210674E0,1.2609809E1,3.0127298E1,1.2493423E0,3.4607834E1,1.0581284E2,2.3720406E1,8.995265E0,9.638083E0,1.4858624E1,6.727761E1,7.709507E1,1.2466726E1],"tree_param":{"num_deleted":"0","num_feature":"9","num_nodes":"59","size_leaf_vector":"1"}},{"base_weights":[-3.1506483E-2,-7.047019E-1,9.8919386E-1,4.4275442E-1,-1.2566546E0,4.810468E-1,1.6382877E0,9.7085714E-1,-1.6563544E-1,-1.6752894E-1,-1.5641693E0,1.4595377E0,-2.6715982E-1,1.949321E-1,-1.4677319E-1,1.0532031E0,-1.5578875E-1,7.230421E-1,-1.2765557E0,4.7793067E-1,-1.2007326E0,-5.4591414E-2,-1.6648681E0,1.5257173E0,-1.3542381E-1,-2.0995723E-1,1.2390893E-1,-1.4940275E-1,1.1205431E0,1.0382972E0,-1.7940158E-1,-2.1481174E-1,2.3586954E-1,7.0917636E-1,-1.7189473E-1,-2.152814E-1,5.6703216E-1,-2.020877E-1,1.3051385E0,3.7638843E-1,-1.7426949E0,1.6802697E0,9.470477E-1,4.804302E-1,-2.0394337E-1,9.863207E-2,1.9133534E-1,-1.6866301E-1,1.4918041E-1,-1.6562295E-1,1.486333E-1,-1.9465916E-2,1.22051746E-1,-1.6046585E-1,1.8264288E-1,1.9910492E-1,5.030207E-2,-1.67256E-1,1.8752654E-1,-2.1905579E-1,-1.4180006E-1,8.403279E-2,1.9710295E-1,-1.6535804E-1,1.7753798E-1,-1.6828935E-1,6.9438E-2],"categories":[],"categories_nodes":[],"categories_segments":[],"categories_sizes":[],"default_left":[0,0,0,0,0,0,0,0,0,0,0,0,0,0,0,0,0,0,0,0,0,0,0,0,0,0,0,0,0,0,0,0,0,0,0,0,0,0,0,0,0,0,0,0,0,0,0,0,0,0,0,0,0,0,0,0,0,0,0,0,0,0,0,0,0,0,0],"id":1,"left_children":[1,3,5,7,9,11,13,15,17,19,21,23,25,-1,-1,27,-1,29,31,33,35,37,39,41,-1,-1,43,-1,45,47,-1,-1,49,51,-1,-1,53,-1,55,57,59,61,63,65,-1,-1,-1,-1,-1,-1,-1,-1,-1,-1,-1,-1,-1,-1,-1,-1,-1,-1,-1,-1,-1,-1,-1],"loss_changes":[4.6922845E2,2.6147424E2,8.81326E1,4.3451782E1,9.238541E1,1.12916245E2,2.1808838E1,1.4463669E1,6.2244076E1,4.2108593E1,3.2172974E1,1.2768478E1,5.399615E1,0E0,0E0,1.1827209E1,0E0,2.5681284E1,2.6178017E1,1.7782715E1,3.0114643E1,3.4759613E1,3.317383E1,3.8850708E0,0E0,0E0,4.725427E1,0E0,7.9592667E0,2.123425E1,0E0,0E0,1.5503128E1,1.133975E1,0E0,0E0,1.525597E1,0E0,1.7041674E0,1.9074253E1,1.3792786E1,1.1856079E-2,2.3569176E1,1.4487581E1,0E0,0E0,0E0,0E0,0E0,0E0,0E0,0E0,0E0,0E0,0E0,0E0,0E0,0E0,0E0,0E0,0E0,0E0,0E0,0E0,0E0,0E0,0E0],"parents":[2147483647,0,0,1,1,2,2,3,3,4,4,5,5,6,6,7,7,8,8,9,9,10,10,11,11,12,12,15,15,17,17,18,18,19,19,20,20,21,21,22,22,23,23,26,26,28,28,29,29,32,32,33,33,36,36,38,38,39,39,40,40,41,41,42,42,43,43],"right_children":[2,4,6,8,10,12,14,16,18,20,22,24,26,-1,-1,28,-1,30,32,34,36,38,40,42,-1,-1,44,-1,46,48,-1,-1,50,52,-1,-1,54,-1,56,58,60,62,64,66,-1,-1,-1,-1,-1,-1,-1,-1,-1,-1,-1,-1,-1,-1,-1,-1,-1,-1,-1,-1,-1,-1,-1],"split_conditions":[2.1219194E1,-3.8545742E-4,2.9415804E1,1.1563168E1,-1.3702497E1,-3.5477934E0,1.2417772E-3,9.3142147E-4,5.047602E-4,-1.4634326E-4,-1.2361169E-8,1.5121638E-3,-2.1223785E-9,1.949321E-1,-1.4677319E-1,-6.554186E-8,-1.5578875E-1,-5.8023324E0,1.9654648E1,7.173161E-4,2.3511653E-4,3.0586317E-8,-8.711225E-8,-8.125662E0,-1.3542381E-1,-2.0995723E-1,5.9093264E-8,-1.4940275E-1,3.4982007E0,1.9758253E-4,-1.7940158E-1,-2.1481174E-1,5.541825E-8,3.0815924E-4,-1.7189473E-1,-2.152814E-1,-1.5845614E1,-2.020877E-1,7.7293175E-1,1.2378331E1,1.5867095E1,-2.0754484E-8,-2.3297123E-4,4.1070148E-1,-2.0394337E-1,9.863207E-2,1.9133534E-1,-1.6866301E-1,1.4918041E-1,-1.6562295E-1,1.486333E-1,-1.9465916E-2,1.22051746E-1,-1.6046585E-1,1.8264288E-1,1.9910492E-1,5.030207E-2,-1.67256E-1,1.8752654E-1,-2.1905579E-1,-1.4180006E-1,8.403279E-2,1.9710295E-1,-1.6535804E-1,1.7753798E-1,-1.6828935E-1,6.9438E-2],"split_indices":[3,6,3,3,4,4,5,5,5,6,8,5,8,0,0,7,0,4,3,5,6,7,7,4,0,0,7,0,4,5,0,0,7,5,0,0,4,0,3,4,3,8,6,4,0,0,0,0,0,0,0,0,0,0,0,0,0,0,0,0,0,0,0,0,0,0,0],"split_type":[0,0,0,0,0,0,0,0,0,0,0,0,0,0,0,0,0,0,0,0,0,0,0,0,0,0,0,0,0,0,0,0,0,0,0,0,0,0,0,0,0,0,0,0,0,0,0,0,0,0,0,0,0,0,0,0,0,0,0,0,0,0,0,0,0,0,0],"sum_hessian":[6.819751E2,4.1129297E2,2.7068213E2,1.3336838E2,2.779246E2,1.5271715E2,1.17964966E2,7.1598175E1,6.177021E1,6.168124E1,2.1624335E2,6.6200035E1,8.651712E1,1.15980415E2,1.9845507E0,6.961217E1,1.9860023E0,3.4209183E1,2.756103E1,3.7888485E1,2.3792753E1,1.3838838E1,2.0240451E2,6.495872E1,1.241317E0,1.715336E1,6.936376E1,1.4864845E0,6.812569E1,3.048329E1,3.7258925E0,1.9899044E1,7.6619854E0,3.441791E1,3.470576E0,1.7376143E1,6.4166093E0,6.208151E0,7.6306868E0,7.157167E0,1.9524734E2,4.9879177E1,1.5079542E1,5.893043E1,1.0433329E1,4.7507717E1,2.0617968E1,2.4840953E0,2.7999193E1,2.7326782E0,4.9293075E0,9.612497E0,2.4805412E1,1.9883187E0,4.4282904E0,4.4185543E0,3.2121325E0,2.7386382E0,4.4185286E0,1.456454E2,4.9601948E1,2.6816487E0,4.719753E1,2.731166E0,1.2348376E1,2.9834127E0,5.5947018E1],"tree_param":{"num_deleted":"0","num_feature":"9","num_nodes":"67","size_leaf_vector":"1"}},{"base_weights":[4.71741E-2,-3.87845E-1,1.2673043E0,2.832523E-1,-8.932945E-1,1.334258E0,-1.6763997E-1,6.511561E-1,-7.242294E-1,-1.1425292E0,1.4839235E-1,9.691057E-1,1.5413254E0,1.0277399E0,5.4700874E-2,-1.3403012E0,5.717558E-1,7.675378E-1,-1.2226471E0,5.156474E-1,-1.9174328E-1,1.839207E-1,6.320981E-1,1.5773764E0,-1.09547764E-1,-1.7670807E-1,1.1421449E0,-1.3262917E0,6.4918923E-1,4.9728715E-1,-1.9578023E-1,1.318717E0,-1.6990769E-1,1.2113988E0,-1.1833114E-1,-1.3538293E0,-4.740855E-2,9.5411897E-1,-1.0461648E0,8.665049E-1,-1.7112383E-1,8.20507E-1,1.607451E0,1.4341879E-1,-4.828049E-2,8.493474E-3,-1.9752373E-1,-1.7677164E-1,1.04141064E-1,1.457459E-1,-1.3564378E-1,1.6953564E-1,5.2197266E-2,1.6826566E-1,5.835619E-2,-3.616425E-2,-1.6521958E-1,8.082131E-2,-1.872902E-1,1.6848713E-1,-1.4402426E-3,-2.0592043E-1,8.148433E-3,-3.9548803E-2,1.2265592E-1,1.4158428E-1,3.2387167E-2,1.8647504E-1,7.785102E-2],"categories":[],"categories_nodes":[],"categories_segments":[],"categories_sizes":[],"default_left":[0,0,0,0,0,0,0,0,0,0,0,0,0,0,0,0,0,0,0,0,0,0,0,0,0,0,0,0,0,0,0,0,0,0,0,0,0,0,0,0,0,0,0,0,0,0,0,0,0,0,0,0,0,0,0,0,0,0,0,0,0,0,0,0,0,0,0,0,0],"id":2,"left_children":[1,3,5,7,9,11,-1,13,15,17,19,21,23,25,27,29,31,33,35,37,-1,-1,39,41,-1,-1,43,45,47,49,-1,51,-1,53,-1,55,57,59,61,63,-1,65,67,-1,-1,-1,-1,-1,-1,-1,-1,-1,-1,-1,-1,-1,-1,-1,-1,-1,-1,-1,-1,-1,-1,-1,-1,-1,-1],"loss_changes":[3.659649E2,1.72555E2,3.4093475E1,8.105724E1,7.580208E1,1.1540894E1,0E0,3.5524567E1,4.7271362E1,3.6566742E1,3.7452232E1,1.2654404E1,1.1106689E1,2.9497444E1,5.1945477E1,2.7691216E1,2.9988947E1,8.370393E0,3.4115845E1,3.2891724E1,0E0,0E0,2.2629957E1,7.695923E-1,0E0,0E0,1.6336113E1,1.1210972E1,2.5666824E1,9.686508E0,0E0,7.679558E-1,0E0,2.0611E-1,0E0,1.6869629E1,2.89819E1,1.9193256E1,9.490913E0,1.0443804E1,0E0,4.6864438E-1,3.0670166E-2,0E0,0E0,0E0,0E0,0E0,0E0,0E0,0E0,0E0,0E0,0E0,0E0,0E0,0E0,0E0,0E0,0E0,0E0,0E0,0E0,0E0,0E0,0E0,0E0,0E0,0E0],"parents":[2147483647,0,0,1,1,2,2,3,3,4,4,5,5,7,7,8,8,9,9,10,10,11,11,12,12,13,13,14,14,15,15,16,16,17,17,18,18,19,19,22,22,23,23,26,26,27,27,28,28,29,29,31,31,33,33,35,35,36,36,37,37,38,38,39,39,41,41,42,42],"right_children":[2,4,6,8,10,12,-1,14,16,18,20,22,24,26,28,30,32,34,36,38,-1,-1,40,42,-1,-1,44,46,48,50,-1,52,-1,54,-1,56,58,60,62,64,-1,66,68,-1,-1,-1,-1,-1,-1,-1,-1,-1,-1,-1,-1,-1,-1,-1,-1,-1,-1,-1,-1,-1,-1,-1,-1,-1,-1],"split_conditions":[2.5886843E1,-2.8194298E-4,-1.6477554E1,-1.8638525E1,2.1219194E1,2.9655565E1,-1.6763997E-1,-8.125662E0,1.3651807E-3,-8.711225E-8,-1.9602697E1,-5.3291316E0,1.2417772E-3,-2.7586655E1,4.76947E0,-2.357653E1,-9.89267E0,-1.9354727E1,2.449507E-4,8.039226E0,-1.9174328E-1,1.839207E-1,5.6513386E-8,-2.5214735E1,-1.09547764E-1,-1.7670807E-1,7.2060636E-4,-7.072105E-4,5.4839323E-4,-1.6819662E1,-1.9578023E-1,-1.2543224E1,-1.6990769E-1,-1.1103709E-4,-1.1833114E-1,-1.9106165E1,-7.447468E0,5.2596594E-4,1.40167465E1,2.681759E1,-1.7112383E-1,-2.6230255E1,1.0428758E-7,1.4341879E-1,-4.828049E-2,8.493474E-3,-1.9752373E-1,-1.7677164E-1,1.04141064E-1,1.457459E-1,-1.3564378E-1,1.6953564E-1,5.2197266E-2,1.6826566E-1,5.835619E-2,-3.616425E-2,-1.6521958E-1,8.082131E-2,-1.872902E-1,1.6848713E-1,-1.4402426E-3,-2.0592043E-1,8.148433E-3,-3.9548803E-2,1.2265592E-1,1.4158428E-1,3.2387167E-2,1.8647504E-1,7.785102E-2],"split_indices":[3,6,0,0,3,3,0,4,5,7,0,4,5,0,4,4,4,0,6,4,0,0,7,0,0,0,5,6,5,0,0,4,0,6,0,4,4,5,4,3,0,0,7,0,0,0,0,0,0,0,0,0,0,0,0,0,0,0,0,0,0,0,0,0,0,0,0,0,0],"split_type":[0,0,0,0,0,0,0,0,0,0,0,0,0,0,0,0,0,0,0,0,0,0,0,0,0,0,0,0,0,0,0,0,0,0,0,0,0,0,0,0,0,0,0,0,0,0,0,0,0,0,0,0,0,0,0,0,0,0,0,0,0,0,0,0,0,0,0,0,0],"sum_hessian":[6.877458E2,5.0700012E2,1.8074565E2,2.175492E2,2.8945093E2,1.7683453E2,3.9111087E0,1.5980515E2,5.774404E1,2.3385507E2,5.5595856E1,6.583809E1,1.1099645E2,9.728233E1,6.2522816E1,3.9348785E1,1.8395258E1,9.014875E0,2.248402E2,4.676772E1,8.828135E0,2.1746174E1,4.4091915E1,1.09778496E2,1.2179542E0,3.7073054E0,9.357503E1,1.840087E1,4.4121944E1,6.2889347E0,3.305985E1,1.3777609E1,4.6176486E0,7.5603504E0,1.4545252E0,2.0186409E2,2.29761E1,3.6891895E1,9.875825E0,4.017305E1,3.9188662E0,5.3165793E0,1.04461914E2,8.794577E1,5.6292567E0,3.897457E0,1.4503413E1,4.192535E0,3.992941E1,4.571221E0,1.7177136E0,1.0914016E1,2.8635926E0,4.682673E0,2.8776774E0,1.58252735E1,1.8603882E2,1.5603618E1,7.3724833E0,2.4205723E1,1.2686173E1,5.9517236E0,3.9241016E0,5.3783054E0,3.4794746E1,2.1709473E0,3.1456318E0,1.0180597E2,2.65595E0],"tree_param":{"num_deleted":"0","num_feature":"9","num_nodes":"69","size_leaf_vector":"1"}},{"base_weights":[1.463718E-2,-5.47463E-1,9.2677605E-1,-2.769521E-1,-1.3291733E0,1.0219294E0,-1.0083138E0,-8.2632345E-1,9.408697E-2,-1.8100177E-1,-9.9132955E-2,6.2335485E-1,1.3479165E0,-0E0,-1.720245E-1,1.1620312E-1,-1.2316544E0,-2.0636965E-1,1.7751858E-1,9.7212535E-1,-1.693814E-1,1.245503E0,7.1551844E-2,1.3882662E0,-1.3587095E-1,9.652142E-2,-1.1563345E-1,-1.8749152E-1,7.8375477E-1,-1.4375886E0,-1.16206944E-1,7.321417E-1,-1.5674289E-1,2.0785883E-1,1.4746192E-1,-1.3333932E-1,1.3481215E0,-1.9295211E-1,4.47818E-1,1.426832E0,4.390313E-1,-1.4564487E-1,1.2883104E-1,3.31013E-2,-1.7629224E-1,-1.677289E-1,8.429345E-2,-1.6929056E-1,1.0164789E-1,5.4321397E-2,-1.0952743E-1,1.3889551E-1,-1.1637754E-1,1.770453E-2,1.6433819E-1,1.0493686E-1,-8.36558E-2,1.6638808E-1,3.591731E-2,-1.4834851E-1,1.4996521E-1],"categories":[],"categories_nodes":[],"categories_segments":[],"categories_sizes":[],"default_left":[0,0,0,0,0,0,0,0,0,0,0,0,0,0,0,0,0,0,0,0,0,0,0,0,0,0,0,0,0,0,0,0,0,0,0,0,0,0,0,0,0,0,0,0,0,0,0,0,0,0,0,0,0,0,0,0,0,0,0,0,0],"id":3,"left_children":[1,3,5,7,9,11,13,15,17,-1,19,21,23,25,-1,27,29,-1,31,33,-1,35,37,39,-1,-1,-1,-1,41,43,45,47,49,51,-1,-1,53,-1,55,57,59,-1,-1,-1,-1,-1,-1,-1,-1,-1,-1,-1,-1,-1,-1,-1,-1,-1,-1,-1,-1],"loss_changes":[3.4410992E2,8.6828995E1,4.770839E1,6.3386147E1,3.1437988E1,3.0483017E1,6.5124245E0,4.8372696E1,2.860805E1,0E0,2.8403728E1,3.7706753E1,1.4600632E1,3.9747286E0,0E0,4.4478134E1,1.9439178E1,0E0,3.321242E1,1.7516289E0,0E0,1.3778427E1,3.948103E1,3.6941376E0,0E0,0E0,0E0,0E0,2.0067297E1,1.3203186E1,1.7578947E1,2.3179588E1,5.602098E1,5.771714E0,0E0,0E0,4.194771E0,0E0,2.7888134E1,2.1092834E0,1.0442789E1,0E0,0E0,0E0,0E0,0E0,0E0,0E0,0E0,0E0,0E0,0E0,0E0,0E0,0E0,0E0,0E0,0E0,0E0,0E0,0E0],"parents":[2147483647,0,0,1,1,2,2,3,3,4,4,5,5,6,6,7,7,8,8,10,10,11,11,12,12,13,13,15,15,16,16,18,18,19,19,21,21,22,22,23,23,28,28,29,29,30,30,31,31,32,32,33,33,36,36,38,38,39,39,40,40],"right_children":[2,4,6,8,10,12,14,16,18,-1,20,22,24,26,-1,28,30,-1,32,34,-1,36,38,40,-1,-1,-1,-1,42,44,46,48,50,52,-1,-1,54,-1,56,58,60,-1,-1,-1,-1,-1,-1,-1,-1,-1,-1,-1,-1,-1,-1,-1,-1,-1,-1,-1,-1],"split_conditions":[2.5305992E1,1.429066E2,1.7345386E2,1.62676E1,2.3549835E1,3.1248316E1,2.6760103E1,2.2055302E0,-3.2216468E-1,-1.8100177E-1,-9.89267E0,-4.485213E0,2.3530746E1,-4.567277E-9,-1.720245E-1,3.618834E-4,1.0402126E-8,-2.0636965E-1,1.2806916E1,-1.4286365E1,-1.693814E-1,-2.7061987E1,-6.889101E-10,1.6130518E1,-1.3587095E-1,9.652142E-2,-1.1563345E-1,-1.8749152E-1,6.3461487E1,-1.4286365E1,6.583305E-4,7.749108E1,5.0741615E-4,2.3681295E1,1.4746192E-1,-1.3333932E-1,-1.1168848E-8,-1.9295211E-1,1.0158889E2,1.3651807E-3,3.5295025E1,-1.4564487E-1,1.2883104E-1,3.31013E-2,-1.7629224E-1,-1.677289E-1,8.429345E-2,-1.6929056E-1,1.0164789E-1,5.4321397E-2,-1.0952743E-1,1.3889551E-1,-1.1637754E-1,1.770453E-2,1.6433819E-1,1.0493686E-1,-8.36558E-2,1.6638808E-1,3.591731E-2,-1.4834851E-1,1.4996521E-1],"split_indices":[1,2,2,1,1,1,1,3,3,0,4,4,4,8,0,5,8,0,3,4,0,4,8,4,0,0,0,0,2,4,5,2,5,1,0,0,8,0,2,5,1,0,0,0,0,0,0,0,0,0,0,0,0,0,0,0,0,0,0,0,0],"split_type":[0,0,0,0,0,0,0,0,0,0,0,0,0,0,0,0,0,0,0,0,0,0,0,0,0,0,0,0,0,0,0,0,0,0,0,0,0,0,0,0,0,0,0,0,0,0,0,0,0,0,0,0,0,0,0,0,0,0,0,0,0],"sum_hessian":[6.6977124E2,4.1424402E2,2.5552719E2,3.0869257E2,1.05551445E2,2.4400229E2,1.1524902E1,1.2463785E2,1.8405473E2,8.74852E1,1.8066248E1,1.1106983E2,1.3293246E2,3.695103E0,7.8297997E0,3.728092E1,8.735693E1,7.0950947E0,1.7695964E2,1.0072279E1,7.993968E0,5.1527367E1,5.954246E1,1.3125072E2,1.6817436E0,2.2634468E0,1.431656E0,9.908315E0,2.7372602E1,7.328963E1,1.40673065E1,6.678324E1,1.101764E2,3.5746143E0,6.497665E0,1.7111291E0,4.981624E1,9.998682E0,4.954378E1,1.25436005E2,5.8147078E0,3.4852605E0,2.3887342E1,3.6331801E0,6.965644E1,5.494439E0,8.572867E0,3.850393E0,6.2932846E1,6.1369606E1,4.880679E1,2.158142E0,1.4164722E0,3.6696725E0,4.6146564E1,3.5830997E1,1.3712783E1,1.2246272E2,2.9732819E0,1.6887596E0,4.125948E0],"tree_param":{"num_deleted":"0","num_feature":"9","num_nodes":"61","size_leaf_vector":"1"}},{"base_weights":[-1.692842E-2,-6.766507E-1,6.416586E-1,-4.1667965E-1,-1.6952334E-1,3.2529497E-1,1.2877896E0,3.6118004E-1,-6.431138E-1,7.6620007E-1,-2.184823E-1,1.3479706E0,-1.2927091E-1,-1.9381128E-1,9.824195E-1,-9.528118E-1,2.6518473E-1,-7.8279054E-1,8.697459E-1,-1.1004132E0,2.8915617E-1,7.690885E-1,1.3838878E0,-3.8064674E-2,1.1365961E0,1.08525105E-1,-1.0280015E0,1.0569092E0,-1.7037001E-1,1.24106295E-1,-1.9230425E-1,9.52341E-1,-1.458878E-1,-1.4175787E0,-6.919755E-2,1.2132763E0,-1.3463266E-1,-1.8453701E-1,1.5784957E-1,1.6083014E-1,5.7529893E-2,-1.3499668E-1,1.24970436E-1,6.802608E-2,1.6778938E-1,-1.5150434E-1,-7.897766E-2,-1.1006642E-1,1.4858508E-1,2.277805E-2,-1.790819E-1,-1.59986E-1,1.17368534E-1,-2.223785E-2,-1.9496147E-1,7.5056985E-2,-1.755075E-1,1.6968091E-1,8.620612E-2,-1.3393003E-1,5.3518146E-2],"categories":[],"categories_nodes":[],"categories_segments":[],"categories_sizes":[],"default_left":[0,0,0,0,0,0,0,0,0,0,0,0,0,0,0,0,0,0,0,0,0,0,0,0,0,0,0,0,0,0,0,0,0,0,0,0,0,0,0,0,0,0,0,0,0,0,0,0,0,0,0,0,0,0,0,0,0,0,0,0,0],"id":4,"left_children":[1,3,5,7,-1,9,11,13,15,17,19,21,-1,-1,23,25,27,29,31,33,35,37,39,41,43,-1,45,47,49,-1,-1,51,-1,53,55,57,59,-1,-1,-1,-1,-1,-1,-1,-1,-1,-1,-1,-1,-1,-1,-1,-1,-1,-1,-1,-1,-1,-1,-1,-1],"loss_changes":[2.7618408E2,6.493671E1,6.404486E1,4.2695934E1,0E0,5.174608E1,1.5989792E1,6.965808E1,5.311328E1,1.948867E1,4.350594E1,6.27182E-1,0E0,0E0,7.120064E0,2.0554527E1,1.6920456E1,1.3658331E1,2.0321556E1,1.0924671E1,2.4460955E1,1.237159E1,2.0193481E-1,8.011559E0,5.1936913E0,0E0,1.2066986E1,9.094559E0,1.656354E1,0E0,0E0,1.8332664E1,0E0,8.210472E0,1.0643284E1,8.488121E-1,2.6636997E1,0E0,0E0,0E0,0E0,0E0,0E0,0E0,0E0,0E0,0E0,0E0,0E0,0E0,0E0,0E0,0E0,0E0,0E0,0E0,0E0,0E0,0E0,0E0,0E0],"parents":[2147483647,0,0,1,1,2,2,3,3,5,5,6,6,7,7,8,8,9,9,10,10,11,11,14,14,15,15,16,16,17,17,18,18,19,19,20,20,21,21,22,22,23,23,24,24,26,26,27,27,28,28,31,31,33,33,34,34,35,35,36,36],"right_children":[2,4,6,8,-1,10,12,14,16,18,20,22,-1,-1,24,26,28,30,32,34,36,38,40,42,44,-1,46,48,50,-1,-1,52,-1,54,56,58,60,-1,-1,-1,-1,-1,-1,-1,-1,-1,-1,-1,-1,-1,-1,-1,-1,-1,-1,-1,-1,-1,-1,-1,-1],"split_conditions":[2.1908659E1,1.429066E2,2.9415804E1,-8.616209E-9,-1.6952334E-1,5.30523E-4,1.2417772E-3,3.0815924E-4,9.915031E-9,-1.9328967E-8,8.080504E-4,7.9638374E1,-1.2927091E-1,-1.9381128E-1,7.214518E1,-1.1495977E-7,7.56652E0,2.2084543E1,1.663319E2,2.681759E1,1.0507975E2,-2.0706326E-8,7.6487E-8,3.0586317E-8,1.8589033E1,1.08525105E-1,1.5316559E1,4.8664783E-4,7.2060636E-4,1.24106295E-1,-1.9230425E-1,5.7215572E1,-1.458878E-1,2.2843588E1,1.0158889E2,8.429296E-4,1.2128832E-3,-1.8453701E-1,1.5784957E-1,1.6083014E-1,5.7529893E-2,-1.3499668E-1,1.24970436E-1,6.802608E-2,1.6778938E-1,-1.5150434E-1,-7.897766E-2,-1.1006642E-1,1.4858508E-1,2.277805E-2,-1.790819E-1,-1.59986E-1,1.17368534E-1,-2.223785E-2,-1.9496147E-1,7.5056985E-2,-1.755075E-1,1.6968091E-1,8.620612E-2,-1.3393003E-1,5.3518146E-2],"split_indices":[1,2,3,8,0,5,5,5,8,8,5,2,0,0,2,7,3,1,2,3,2,7,7,7,1,0,1,5,5,0,0,2,0,1,2,5,5,0,0,0,0,0,0,0,0,0,0,0,0,0,0,0,0,0,0,0,0,0,0,0,0],"split_type":[0,0,0,0,0,0,0,0,0,0,0,0,0,0,0,0,0,0,0,0,0,0,0,0,0,0,0,0,0,0,0,0,0,0,0,0,0,0,0,0,0,0,0,0,0,0,0,0,0,0,0,0,0,0,0,0,0,0,0,0,0],"sum_hessian":[6.345512E2,3.1731778E2,3.172334E2,2.4047955E2,7.6838234E1,2.1394565E2,1.0328776E2,5.3724236E1,1.8675531E2,1.18459335E2,9.548631E1,1.0117827E2,2.1094897E0,1.2125606E1,4.1598633E1,1.3959906E2,4.7156258E1,6.944283E0,1.1151505E2,3.4960224E1,6.052609E1,7.306239E0,9.387203E1,5.1507654E0,3.6447865E1,4.867446E0,1.3473161E2,1.6810286E1,3.0345972E1,2.0564165E0,4.8878665E0,1.0784971E2,3.6653423E0,2.626745E1,8.692774E0,1.9030785E1,4.1495304E1,1.1606413E0,6.145598E0,9.13525E1,2.5195317E0,2.7389312E0,2.4118342E0,1.4672554E1,2.1775312E1,7.107798E1,6.365363E1,1.4078417E0,1.5402444E1,2.4102314E1,6.243658E0,2.6430204E0,1.0520669E2,5.3450956E0,2.0922356E1,5.8164334E0,2.8763397E0,1.0775132E1,8.255651E0,1.5344333E1,2.6150972E1],"tree_param":{"num_deleted":"0","num_feature":"9","num_nodes":"61","size_leaf_vector":"1"}},{"base_weights":[9.1929585E-3,-4.8012936E-1,8.090577E-1,-2.0977342E-1,-1.1704843E0,8.939064E-1,-8.9310056E-1,3.7734932E-1,-5.7551694E-1,-1.3664179E0,-6.7705646E-2,9.881776E-1,-3.8380787E-1,-0E0,-1.5569718E-1,-8.0243E-1,5.063887E-1,-1.1464007E0,-1.6225357E-1,-1.6488755E-1,-8.002306E-1,8.7871E-1,-1.542461E-1,6.2029135E-1,1.459883E-1,-1.795973E-1,1.4283109E-1,-1.09918095E-1,1.12397425E-1,-1.6430351E-1,6.8681635E-2,7.471675E-1,-2.6039767E-1,6.6146237E-1,-1.2540259E0,3.8290177E-2,-9.6384907E-1,1.08314015E-1,-1.5107042E-1,1.6063617E-1,1.3370954E-1,9.156579E-1,-7.3976344E-3,1.551366E-1,-6.277309E-1,5.6993026E-2,1.2744972E-1,-9.674689E-2,6.342825E-2,-9.4480276E-2,1.8834098E-1,-1.5334755E-1,2.7306834E-2,-1.3033964E-1,3.4128703E-2,-1.799648E-1,8.825117E-2,1.2158685E-1,-1.02590054E-1,-4.687274E-3,1.302393E-1,-1.5840702E-1,2.2841904E-2,-1.623401E-1,1.0938557E-1],"categories":[],"categories_nodes":[],"categories_segments":[],"categories_sizes":[],"default_left":[0,0,0,0,0,0,0,0,0,0,0,0,0,0,0,0,0,0,0,0,0,0,0,0,0,0,0,0,0,0,0,0,0,0,0,0,0,0,0,0,0,0,0,0,0,0,0,0,0,0,0,0,0,0,0,0,0,0,0,0,0,0,0,0,0],"id":5,"left_children":[1,3,5,7,9,11,13,15,17,19,21,23,25,27,-1,29,31,33,35,-1,37,39,-1,41,-1,-1,43,-1,-1,-1,-1,45,47,49,51,53,55,-1,-1,57,-1,59,61,-1,63,-1,-1,-1,-1,-1,-1,-1,-1,-1,-1,-1,-1,-1,-1,-1,-1,-1,-1,-1,-1],"loss_changes":[2.4454994E2,7.153342E1,3.470839E1,6.017176E1,2.275792E1,2.7753433E1,4.97363E0,1.6393E1,4.0096928E1,2.0363464E0,2.1647308E1,2.0797806E1,1.0448742E1,4.4695973E0,0E0,1.0000788E1,1.825201E1,1.4709885E1,1.6691793E1,0E0,1.1515416E1,1.3935604E0,0E0,1.7756691E1,0E0,0E0,1.1060275E1,0E0,0E0,0E0,0E0,5.8001595E0,1.1347733E1,7.1379485E0,8.935982E0,2.4457872E1,2.26308E1,0E0,0E0,4.272305E0,0E0,1.3898884E1,9.1545105E0,0E0,9.49585E0,0E0,0E0,0E0,0E0,0E0,0E0,0E0,0E0,0E0,0E0,0E0,0E0,0E0,0E0,0E0,0E0,0E0,0E0,0E0,0E0],"parents":[2147483647,0,0,1,1,2,2,3,3,4,4,5,5,6,6,7,7,8,8,9,9,10,10,11,11,12,12,13,13,15,15,16,16,17,17,18,18,20,20,21,21,23,23,26,26,31,31,32,32,33,33,34,34,35,35,36,36,39,39,41,41,42,42,44,44],"right_children":[2,4,6,8,10,12,14,16,18,20,22,24,26,28,-1,30,32,34,36,-1,38,40,-1,42,-1,-1,44,-1,-1,-1,-1,46,48,50,52,54,56,-1,-1,58,-1,60,62,-1,64,-1,-1,-1,-1,-1,-1,-1,-1,-1,-1,-1,-1,-1,-1,-1,-1,-1,-1,-1,-1],"split_conditions":[2.5305992E1,-1.9049429E1,-1.631832E1,-2.8469E-4,2.3549835E1,1.5617798E1,-9.716934E-4,-2.7839539E1,1.5316559E1,7.865683E-9,-9.89267E0,3.1248316E1,-2.2896326E1,-1.6474096E1,-1.5569718E-1,2.027827E-8,-2.1594439E1,4.70136E0,7.1663604E0,-1.6488755E-1,8.054485E-9,-1.4286365E1,-1.542461E-1,5.586844E0,1.459883E-1,-1.795973E-1,-2.248536E1,-1.09918095E-1,1.12397425E-1,-1.6430351E-1,6.8681635E-2,4.0264754E0,7.789017E-9,-2.4239153E1,4.0667775E-4,-1.514125E1,1.289532E2,1.08314015E-1,-1.5107042E-1,2.3681295E1,1.3370954E-1,-4.567277E-9,-2.825728E-9,1.551366E-1,3.6919327E1,5.6993026E-2,1.2744972E-1,-9.674689E-2,6.342825E-2,-9.4480276E-2,1.8834098E-1,-1.5334755E-1,2.7306834E-2,-1.3033964E-1,3.4128703E-2,-1.799648E-1,8.825117E-2,1.2158685E-1,-1.02590054E-1,-4.687274E-3,1.302393E-1,-1.5840702E-1,2.2841904E-2,-1.623401E-1,1.0938557E-1],"split_indices":[1,0,0,6,1,4,6,0,1,8,4,1,0,4,0,8,0,1,4,0,8,4,0,4,0,0,0,0,0,0,0,4,8,0,6,4,2,0,0,1,0,8,8,0,1,0,0,0,0,0,0,0,0,0,0,0,0,0,0,0,0,0,0,0,0],"split_type":[0,0,0,0,0,0,0,0,0,0,0,0,0,0,0,0,0,0,0,0,0,0,0,0,0,0,0,0,0,0,0,0,0,0,0,0,0,0,0,0,0,0,0,0,0,0,0,0,0,0,0,0,0,0,0,0,0,0,0,0,0,0,0,0,0],"sum_hessian":[6.2339386E2,3.8658237E2,2.3681148E2,2.7873938E2,1.0784297E2,2.2604846E2,1.0763008E1,1.0653688E2,1.722025E2,9.113631E1,1.6706665E1,2.109398E2,1.5108668E1,3.6914706E0,7.0715375E0,9.902296E0,9.663459E1,7.14789E1,1.0072361E2,7.97742E1,1.1362109E1,9.494933E0,7.211732E0,9.313478E1,1.1780502E2,4.5847235E0,1.0523945E1,1.7566359E0,1.9348347E0,7.0372057E0,2.8650906E0,7.397449E1,2.26601E1,3.638753E0,6.784014E1,8.055173E1,2.017188E1,2.3020499E0,9.060059E0,3.364919E0,6.1300144E0,6.362619E1,2.9508587E1,4.15585E0,6.3680944E0,4.517394E1,2.8800547E1,1.34971895E1,9.162911E0,1.3071318E0,2.3316212E0,6.465585E1,3.1842864E0,1.3936072E1,6.6615654E1,1.5181533E1,4.990348E0,2.0334122E0,1.3315067E0,1.1550618E1,5.2075573E1,3.7275238E0,2.5781063E1,4.470533E0,1.8975616E0],"tree_param":{"num_deleted":"0","num_feature":"9","num_nodes":"65","size_leaf_vector":"1"}},{"base_weights":[8.318329E-3,-6.114735E-1,5.85103E-1,-3.2194313E-2,-9.5328015E-1,2.6599458E-1,1.092261E0,4.148563E-1,-8.52453E-1,-1.102441E0,3.909796E-1,5.2275085E-1,-4.2291468E-1,1.1263008E0,-1.0659668E-1,6.217999E-1,-1.4262857E-1,-9.9582034E-1,1.3122751E-1,-2.1874888E-1,-1.3745761E0,-1.5299919E-1,9.009541E-1,6.2614506E-1,-9.8350483E-1,5.281417E-1,-1.2117156E0,1.1588408E0,-9.835172E-2,-7.5806135E-1,8.460012E-1,-3.5122317E-1,-1.7173207E-1,-1.5422425E-1,6.992058E-1,-0E0,-1.6448665E-1,1.1099938E0,-9.472765E-2,8.993806E-1,-0E0,4.688813E-2,-1.776834E-1,7.1576077E-1,-1.326761E-1,-1.6536142E-1,3.1441018E-1,9.480586E-1,1.5396804E-1,1.1876499E-1,-1.6413078E-1,-3.156811E-4,1.07454754E-1,1.006053E-1,-1.0930779E-1,1.1396237E-1,-1.3367644E-1,1.5778789E-1,-1.2931147E-1,3.6409788E-2,1.5899748E-1,1.1950322E-1,-0E0,-1.3504261E-1,6.382666E-2,-9.4042115E-2,9.785257E-2,1.3468142E-1,-9.210039E-2,1.166971E-1,-1.2027547E-1],"categories":[],"categories_nodes":[],"categories_segments":[],"categories_sizes":[],"default_left":[0,0,0,0,0,0,0,0,0,0,0,0,0,0,0,0,0,0,0,0,0,0,0,0,0,0,0,0,0,0,0,0,0,0,0,0,0,0,0,0,0,0,0,0,0,0,0,0,0,0,0,0,0,0,0,0,0,0,0,0,0,0,0,0,0,0,0,0,0,0,0],"id":6,"left_children":[1,3,5,7,9,11,13,15,17,19,21,23,25,27,-1,29,-1,31,-1,33,35,-1,37,39,41,43,45,47,-1,49,51,53,-1,-1,55,57,-1,59,-1,61,63,-1,-1,65,-1,-1,67,69,-1,-1,-1,-1,-1,-1,-1,-1,-1,-1,-1,-1,-1,-1,-1,-1,-1,-1,-1,-1,-1,-1,-1],"loss_changes":[2.1489355E2,5.6870216E1,4.9716324E1,4.0133335E1,3.6934875E1,3.4222397E1,8.878891E0,2.4221115E1,1.1635057E1,3.855974E1,1.6494436E1,2.2133366E1,3.97421E1,8.2859955E0,0E0,1.9869303E1,0E0,1.0734577E1,0E0,4.162647E1,9.949829E0,0E0,5.8761997E0,2.24057E1,7.8860226E0,7.7630453E0,1.0791592E1,2.8189392E0,0E0,1.1575447E1,4.564869E0,1.3067749E1,0E0,0E0,1.253047E1,9.433613E0,0E0,1.971075E0,0E0,1.1956108E1,2.7046257E1,0E0,0E0,4.9801855E0,0E0,0E0,4.4573016E0,8.308655E0,0E0,0E0,0E0,0E0,0E0,0E0,0E0,0E0,0E0,0E0,0E0,0E0,0E0,0E0,0E0,0E0,0E0,0E0,0E0,0E0,0E0,0E0,0E0],"parents":[2147483647,0,0,1,1,2,2,3,3,4,4,5,5,6,6,7,7,8,8,9,9,10,10,11,11,12,12,13,13,15,15,17,17,19,19,20,20,22,22,23,23,24,24,25,25,26,26,27,27,29,29,30,30,31,31,34,34,35,35,37,37,39,39,40,40,43,43,46,46,47,47],"right_children":[2,4,6,8,10,12,14,16,18,20,22,24,26,28,-1,30,-1,32,-1,34,36,-1,38,40,42,44,46,48,-1,50,52,54,-1,-1,56,58,-1,60,-1,62,64,-1,-1,66,-1,-1,68,70,-1,-1,-1,-1,-1,-1,-1,-1,-1,-1,-1,-1,-1,-1,-1,-1,-1,-1,-1,-1,-1,-1,-1],"split_conditions":[2.1908659E1,-2.8469E-4,3.1248316E1,1.2434634E1,2.8775635E-4,-1.9602697E1,2.3530746E1,-1.8680365E1,-2.891151E-4,-1.587175E-8,1.0531238E-8,7.0209204E-8,-9.89267E0,-1.6477554E1,-1.0659668E-1,-2.5931524E1,-1.4262857E-1,-5.8023324E0,1.3122751E-1,1.5316559E1,-1.9106165E1,-1.5299919E-1,5.4310238E-8,7.009248E-5,-7.072105E-4,-2.5852842E-4,2.8940254E1,3.5295025E1,-9.835172E-2,-5.232594E-8,1.2119428E1,-7.072105E-4,-1.7173207E-1,-1.5422425E-1,-8.11409E-6,1.9430477E1,-1.6448665E-1,3.5867718E-8,-9.472765E-2,9.861338E0,2.4088293E1,4.688813E-2,-1.776834E-1,2.3305552E1,-1.326761E-1,-1.6536142E-1,-1.8680365E1,1.6130518E1,1.5396804E-1,1.1876499E-1,-1.6413078E-1,-3.156811E-4,1.07454754E-1,1.006053E-1,-1.0930779E-1,1.1396237E-1,-1.3367644E-1,1.5778789E-1,-1.2931147E-1,3.6409788E-2,1.5899748E-1,1.1950322E-1,-0E0,-1.3504261E-1,6.382666E-2,-9.4042115E-2,9.785257E-2,1.3468142E-1,-9.210039E-2,1.166971E-1,-1.2027547E-1],"split_indices":[1,6,1,3,6,0,4,0,6,7,7,7,4,0,0,0,0,4,0,1,4,0,7,6,6,6,3,1,0,7,1,6,0,0,6,1,0,7,0,4,3,0,0,1,0,0,0,4,0,0,0,0,0,0,0,0,0,0,0,0,0,0,0,0,0,0,0,0,0,0,0],"split_type":[0,0,0,0,0,0,0,0,0,0,0,0,0,0,0,0,0,0,0,0,0,0,0,0,0,0,0,0,0,0,0,0,0,0,0,0,0,0,0,0,0,0,0,0,0,0,0,0,0,0,0,0,0,0,0,0,0,0,0,0,0,0,0,0,0,0,0,0,0,0,0],"sum_hessian":[6.0008057E2,2.888851E2,3.1119543E2,1.0788267E2,1.8100244E2,1.9202763E2,1.1916781E2,6.96625E1,3.822017E1,1.6329604E2,1.770641E1,1.4043478E2,5.1592842E1,1.1763429E2,1.533519E0,6.245435E1,7.20815E0,3.6107876E1,2.1122956E0,3.9043644E1,1.2425239E2,3.6549788E0,1.405143E1,1.3197209E2,8.462691E0,2.3226606E1,2.8366236E1,1.1616563E2,1.4686677E0,8.285299E0,5.416905E1,1.6538237E1,1.9569637E1,1.7646255E1,2.1397388E1,5.0189333E0,1.1923345E2,1.29242115E1,1.1272182E0,9.1388084E1,4.0584015E1,2.2648847E0,6.1978064E0,2.140283E1,1.823776E0,2.4944147E1,3.4220872E0,5.6445953E1,5.971967E1,2.0055952E0,6.2797036E0,4.775819E0,4.939323E1,5.120596E0,1.1417641E1,1.8902365E1,2.4950247E0,2.2169783E0,2.8019547E0,4.0205836E0,8.903627E0,7.916368E1,1.2224399E1,1.2663109E1,2.7920906E1,1.272456E0,2.0130373E1,2.1347113E0,1.287376E0,5.5042587E1,1.4033691E0],"tree_param":{"num_deleted":"0","num_feature":"9","num_nodes":"71","size_leaf_vector":"1"}},{"base_weights":[-2.78873E-3,-3.2020864E-1,7.5505775E-1,1.00796506E-1,-6.7523855E-1,8.1595796E-1,-1.3302596E-1,-7.155171E-2,8.1043166E-1,-9.082169E-1,9.678902E-2,4.7330144E-1,1.0586029E0,4.339447E-1,-4.2892662E-1,9.048513E-1,-1.1655134E-1,4.4171566E-1,-1.0183046E0,1.1949081E-1,-1.9189404E-1,1.2094293E0,-0E0,1.1085804E0,-1.1890138E-1,5.528238E-1,-1.311717E-1,4.145481E-1,-9.513824E-1,1.1434565E0,5.321782E-1,8.163815E-1,-1.1068083E-1,9.310316E-2,-1.0494771E0,-9.649662E-1,1.5844594E-1,2.9801039E-2,1.2716496E0,3.110743E-1,-1.6174674E-1,4.851518E-1,1.1505814E0,-1.2450567E-1,9.0252526E-2,-1.4467226E-1,7.780037E-2,-1.4492106E-1,9.300892E-2,-1.312864E-1,6.2915705E-2,3.3993527E-2,1.4160094E-1,1.0476855E-1,-1.4215842E-1,-8.38971E-2,1.2891015E-1,4.5923557E-4,-1.2558149E-1,1.3915975E-1,-1.7391908E-1,6.474017E-2,-1.369141E-1,1.527608E-1,3.918922E-2,-1.5381713E-1,6.173142E-2,-1.7204468E-1,1.22191474E-1,1.3557474E-1,5.0506648E-2],"categories":[],"categories_nodes":[],"categories_segments":[],"categories_sizes":[],"default_left":[0,0,0,0,0,0,0,0,0,0,0,0,0,0,0,0,0,0,0,0,0,0,0,0,0,0,0,0,0,0,0,0,0,0,0,0,0,0,0,0,0,0,0,0,0,0,0,0,0,0,0,0,0,0,0,0,0,0,0,0,0,0,0,0,0,0,0,0,0,0,0],"id":7,"left_children":[1,3,5,7,9,11,-1,13,15,17,19,21,23,25,27,29,-1,31,33,-1,35,37,39,41,43,45,-1,47,49,51,53,55,-1,-1,57,59,61,-1,63,65,-1,67,69,-1,-1,-1,-1,-1,-1,-1,-1,-1,-1,-1,-1,-1,-1,-1,-1,-1,-1,-1,-1,-1,-1,-1,-1,-1,-1,-1,-1],"loss_changes":[1.3758423E2,6.0672546E1,2.0017227E1,2.294297E1,3.992926E1,1.2714546E1,0E0,2.695539E1,6.759754E0,2.5651382E1,1.43681755E1,2.3826057E1,6.073639E0,1.1583752E1,3.915772E1,2.1022358E0,0E0,7.1273055E0,9.511139E0,0E0,1.1035717E1,7.647896E-1,1.877938E1,1.3971329E0,4.0785794E0,1.3241238E1,0E0,2.2674644E1,1.6334114E1,7.012024E-1,1.0893983E1,5.6642103E0,0E0,0E0,7.6614685E0,1.6273243E1,1.4898249E1,0E0,3.945427E-1,1.3538721E1,0E0,9.094812E0,8.369522E-1,0E0,0E0,0E0,0E0,0E0,0E0,0E0,0E0,0E0,0E0,0E0,0E0,0E0,0E0,0E0,0E0,0E0,0E0,0E0,0E0,0E0,0E0,0E0,0E0,0E0,0E0,0E0,0E0],"parents":[2147483647,0,0,1,1,2,2,3,3,4,4,5,5,7,7,8,8,9,9,10,10,11,11,12,12,13,13,14,14,15,15,17,17,18,18,20,20,21,21,22,22,23,23,24,24,25,25,27,27,28,28,29,29,30,30,31,31,34,34,35,35,36,36,38,38,39,39,41,41,42,42],"right_children":[2,4,6,8,10,12,-1,14,16,18,20,22,24,26,28,30,-1,32,34,-1,36,38,40,42,44,46,-1,48,50,52,54,56,-1,-1,58,60,62,-1,64,66,-1,68,70,-1,-1,-1,-1,-1,-1,-1,-1,-1,-1,-1,-1,-1,-1,-1,-1,-1,-1,-1,-1,-1,-1,-1,-1,-1,-1,-1,-1],"split_conditions":[2.384401E1,-8.125662E0,-1.6477554E1,1.6659904E1,1.1847434E-8,2.8810522E1,-1.3302596E-1,-1.8161407E1,-1.4176448E1,-1.2361169E-8,7.56652E0,-3.5477934E0,-1.8307783E1,-1.6819662E1,1.4419683E-9,-2.248536E1,-1.1655134E-1,-2.2936666E1,-1.481939E-7,1.1949081E-1,-2.4612497E1,-2.312206E1,-2.0620642E1,-2.5173546E1,-1.6561121E1,-2.5408514E1,-1.311717E-1,-2.5408514E1,1.3015425E-7,-2.7516708E1,3.8786566E-10,7.214518E1,-1.1068083E-1,9.310316E-2,-1.625388E0,-7.447468E0,-2.0275545E1,2.9801039E-2,1.6186613E-8,-2.9870115E-9,-1.6174674E-1,-1.4842294E-8,5.2526307E-8,-1.2450567E-1,9.0252526E-2,-1.4467226E-1,7.780037E-2,-1.4492106E-1,9.300892E-2,-1.312864E-1,6.2915705E-2,3.3993527E-2,1.4160094E-1,1.0476855E-1,-1.4215842E-1,-8.38971E-2,1.2891015E-1,4.5923557E-4,-1.2558149E-1,1.3915975E-1,-1.7391908E-1,6.474017E-2,-1.369141E-1,1.527608E-1,3.918922E-2,-1.5381713E-1,6.173142E-2,-1.7204468E-1,1.22191474E-1,1.3557474E-1,5.0506648E-2],"split_indices":[3,4,0,3,8,3,0,4,0,8,3,4,0,0,7,0,0,0,7,0,0,0,0,0,0,0,0,0,7,0,8,2,0,0,3,4,0,0,8,8,0,7,7,0,0,0,0,0,0,0,0,0,0,0,0,0,0,0,0,0,0,0,0,0,0,0,0,0,0,0,0],"split_type":[0,0,0,0,0,0,0,0,0,0,0,0,0,0,0,0,0,0,0,0,0,0,0,0,0,0,0,0,0,0,0,0,0,0,0,0,0,0,0,0,0,0,0,0,0,0,0,0,0,0,0,0,0,0,0,0,0,0,0,0,0,0,0,0,0,0,0,0,0,0,0],"sum_hessian":[5.71636E2,4.0350266E2,1.6813332E2,1.8422693E2,2.1927573E2,1.6346123E2,4.672079E0,1.481333E2,3.6093628E1,1.6879428E2,5.0481445E1,6.914907E1,9.4312164E1,6.0811512E1,8.7321785E1,3.4797623E1,1.2960036E0,1.2313918E1,1.5648036E2,1.1842207E1,3.8639236E1,2.6424189E1,4.272488E1,9.084901E1,3.463162E0,5.7121975E1,3.6895363E0,3.31307E1,5.4191086E1,1.984151E1,1.4956114E1,1.0139066E1,2.1748521E0,2.1683846E0,1.5431197E2,1.2134696E1,2.6504541E1,2.2155151E0,2.4208673E1,3.555668E1,7.1681995E0,6.7991524E0,8.404985E1,1.8515849E0,1.611577E0,3.141733E0,5.3980244E1,5.8923793E0,2.7238321E1,4.840704E1,5.7840457E0,2.572932E0,1.7268578E1,1.2724029E1,2.2320852E0,1.3226408E0,8.816425E0,5.8333483E0,1.4847862E2,2.159473E0,9.975223E0,2.086984E1,5.6347E0,2.212643E1,2.0822427E0,3.7453432E0,3.1811337E1,1.1774417E0,5.621711E0,7.972788E1,4.321971E0],"tree_param":{"num_deleted":"0","num_feature":"9","num_nodes":"71","size_leaf_vector":"1"}},{"base_weights":[2.8764296E-2,-5.380323E-1,4.926828E-1,-3.0490178E-1,-1.1950685E0,2.1878521E-1,9.938055E-1,1.4300603E-1,-6.1250925E-1,1.165739E-1,-1.4698008E-1,4.3175817E-1,-3.844945E-1,1.0578133E0,-6.8697874E-3,-7.7822256E-1,6.127303E-1,-8.155175E-1,9.3959045E-1,5.295346E-1,-9.89515E-1,4.4588354E-1,-1.1231171E0,1.0882081E0,-9.750938E-2,-1.343704E-1,1.00243025E-1,-1.7087065E-1,-1.9192456E-1,1.5135425E-1,2.4158446E-1,-1.0447384E0,4.5715478E-1,1.3280907E-1,1.6508593E-1,-0E0,8.360106E-1,4.082867E-2,-1.6708077E-1,7.6694655E-1,-5.605833E-1,-1.5073459E-1,7.507809E-2,7.222859E-1,1.139297E0,-1.5060876E-1,5.867038E-2,-1.6559993E-1,8.463812E-2,1.0200218E-1,-1.302612E-1,8.790744E-2,-1.242081E-1,-8.751444E-2,1.152716E-1,5.509384E-2,-1.3651675E-1,1.0897577E-1,-1.5752298E-1,-1.3055356E-1,1.1386336E-1,-1.4620034E-1,9.140751E-2,1.1710109E-1,-1.0474672E-1,-1.7578664E-1,1.15821436E-1,1.3270696E-1,2.7845325E-2],"categories":[],"categories_nodes":[],"categories_segments":[],"categories_sizes":[],"default_left":[0,0,0,0,0,0,0,0,0,0,0,0,0,0,0,0,0,0,0,0,0,0,0,0,0,0,0,0,0,0,0,0,0,0,0,0,0,0,0,0,0,0,0,0,0,0,0,0,0,0,0,0,0,0,0,0,0,0,0,0,0,0,0,0,0,0,0,0,0],"id":8,"left_children":[1,3,5,7,9,11,13,15,17,-1,-1,19,21,23,25,27,29,31,33,35,37,39,41,43,-1,-1,-1,-1,45,-1,47,49,51,-1,53,55,57,-1,-1,59,61,-1,63,65,67,-1,-1,-1,-1,-1,-1,-1,-1,-1,-1,-1,-1,-1,-1,-1,-1,-1,-1,-1,-1,-1,-1,-1,-1],"loss_changes":[1.4681001E2,3.7602585E1,4.1568367E1,2.5930735E1,1.3012352E1,2.581091E1,7.3659134E0,3.2973175E1,3.5390293E1,0E0,0E0,2.0739117E1,3.2423862E1,6.5025787E0,7.454592E0,9.750608E0,1.2460178E1,2.9343338E1,1.4969969E0,2.2948147E1,6.6765594E0,8.258974E0,6.919464E0,6.4902496E-1,0E0,0E0,0E0,0E0,1.2440538E1,0E0,2.8908592E1,1.5230621E1,7.5115795E0,0E0,3.523995E0,2.982792E1,2.268576E1,0E0,0E0,8.743422E0,6.4819207E0,0E0,4.289118E0,1.017215E1,5.2117157E-1,0E0,0E0,0E0,0E0,0E0,0E0,0E0,0E0,0E0,0E0,0E0,0E0,0E0,0E0,0E0,0E0,0E0,0E0,0E0,0E0,0E0,0E0,0E0,0E0],"parents":[2147483647,0,0,1,1,2,2,3,3,4,4,5,5,6,6,7,7,8,8,11,11,12,12,13,13,14,14,15,15,16,16,17,17,18,18,19,19,20,20,21,21,22,22,23,23,28,28,30,30,31,31,32,32,34,34,35,35,36,36,39,39,40,40,42,42,43,43,44,44],"right_children":[2,4,6,8,10,12,14,16,18,-1,-1,20,22,24,26,28,30,32,34,36,38,40,42,44,-1,-1,-1,-1,46,-1,48,50,52,-1,54,56,58,-1,-1,60,62,-1,64,66,68,-1,-1,-1,-1,-1,-1,-1,-1,-1,-1,-1,-1,-1,-1,-1,-1,-1,-1,-1,-1,-1,-1,-1,-1],"split_conditions":[2.1252748E1,1.3659035E2,3.1248316E1,-9.249619E0,-1.9328967E-8,1.3044911E2,1.6130518E1,3.2105818E-4,1.4439152E1,1.165739E-1,-1.4698008E-1,7.0209204E-8,-9.89267E0,1.4425967E-3,3.6919327E1,-5.4446203E-9,-8.369116E-9,1.4894783E-8,-3.1112464E-8,9.213975E1,6.999139E1,3.8786566E-10,3.0338549E1,1.726885E-4,-9.750938E-2,-1.343704E-1,1.00243025E-1,-1.7087065E-1,1.736041E1,1.5135425E-1,5.024078E-4,4.70136E0,7.7435334E-4,1.3280907E-1,1.19203865E2,4.990419E-4,9.421043E-4,4.082867E-2,-1.6708077E-1,4.0144695E-8,2.3827807E-8,-1.5073459E-1,-8.711225E-8,8.740149E1,1.6884837E2,-1.5060876E-1,5.867038E-2,-1.6559993E-1,8.463812E-2,1.0200218E-1,-1.302612E-1,8.790744E-2,-1.242081E-1,-8.751444E-2,1.152716E-1,5.509384E-2,-1.3651675E-1,1.0897577E-1,-1.5752298E-1,-1.3055356E-1,1.1386336E-1,-1.4620034E-1,9.140751E-2,1.1710109E-1,-1.0474672E-1,-1.7578664E-1,1.15821436E-1,1.3270696E-1,2.7845325E-2],"split_indices":[1,2,1,4,8,2,4,5,4,0,0,7,4,5,1,8,7,8,7,2,2,8,1,5,0,0,0,0,1,0,5,1,5,0,2,5,5,0,0,7,8,0,7,2,2,0,0,0,0,0,0,0,0,0,0,0,0,0,0,0,0,0,0,0,0,0,0,0,0],"split_type":[0,0,0,0,0,0,0,0,0,0,0,0,0,0,0,0,0,0,0,0,0,0,0,0,0,0,0,0,0,0,0,0,0,0,0,0,0,0,0,0,0,0,0,0,0,0,0,0,0,0,0,0,0,0,0,0,0,0,0,0,0,0,0,0,0,0,0,0,0],"sum_hessian":[5.5731946E2,2.5039464E2,3.0692484E2,1.8587581E2,6.451883E1,1.9950333E2,1.0742151E2,7.5233025E1,1.1064278E2,1.9824934E0,6.2536335E1,1.4808395E2,5.1419373E1,1.0133424E2,6.087261E0,2.498115E1,5.0251873E1,9.8312874E1,1.2329904E1,1.3914764E2,8.936315E0,2.4035196E1,2.7384178E1,1.0019101E2,1.1432346E0,2.753311E0,3.3339503E0,1.0598875E1,1.4382274E1,1.6458715E1,3.3793156E1,8.367304E1,1.463983E1,8.995915E0,3.3339882E0,5.0808636E1,8.8339005E1,2.0949783E0,6.8413363E0,1.86397E1,5.395497E0,2.390688E1,3.4772975E0,1.429097E1,8.590004E1,5.6007175E0,8.781556E0,7.254887E0,2.653827E1,3.2842221E0,8.0388824E1,1.2651061E1,1.9887686E0,1.3658472E0,1.968141E0,3.6227997E1,1.458064E1,8.451341E1,3.8255894E0,1.5367929E0,1.7102907E1,3.7647219E0,1.6307751E0,1.9881718E0,1.4891257E0,1.1805106E0,1.3110459E1,8.374486E1,2.1551833E0],"tree_param":{"num_deleted":"0","num_feature":"9","num_nodes":"69","size_leaf_vector":"1"}},{"base_weights":[2.1220618E-3,-4.8192236E-1,4.2180282E-1,1.9857548E-1,-8.5088664E-1,2.026608E-1,8.782607E-1,4.1017365E-1,-1.3396573E-1,4.1242093E-1,-9.1621E-1,4.278039E-1,-3.6111927E-1,9.131214E-1,-9.67607E-2,5.0635374E-1,-1.3746855E-1,-7.3437735E-2,7.0198905E-1,-1.0014035E0,4.670637E-2,5.278599E-2,7.4724555E-1,-2.9126775E-2,-1.5617593E-1,7.258147E-1,1.346009E-1,-3.3611158E-1,6.753923E-1,1.229112E-1,-0E0,-1.0935386E0,-3.3674634E-1,-1.3734595E-1,8.945961E-1,4.0649194E-1,-7.29176E-1,8.6583793E-1,-1.4181477E-1,5.696487E-1,-3.6697292E-1,7.840187E-1,-1.2813868E-1,1.1926135E-1,-1.4324626E-1,8.425891E-2,-1.1833936E-1,-9.021752E-2,8.998381E-2,-1.5823267E-2,-1.3241568E-1,1.001151E-1,-1.0620994E-1,1.4210194E-1,-7.5502686E-2,-4.675876E-2,8.6386845E-2,-1.297952E-1,2.1928288E-2,1.10395E-1,-1.3179252E-1,-1.2660706E-1,9.898725E-2,-1.4468881E-1,5.5929776E-2,1.0515063E-2,1.0040969E-1,-1.449903E-1,8.529381E-2],"categories":[],"categories_nodes":[],"categories_segments":[],"categories_sizes":[],"default_left":[0,0,0,0,0,0,0,0,0,0,0,0,0,0,0,0,0,0,0,0,0,0,0,0,0,0,0,0,0,0,0,0,0,0,0,0,0,0,0,0,0,0,0,0,0,0,0,0,0,0,0,0,0,0,0,0,0,0,0,0,0,0,0,0,0,0,0,0,0],"id":9,"left_children":[1,3,5,7,9,11,13,15,-1,17,19,21,23,25,-1,27,-1,-1,29,31,33,35,37,39,-1,41,-1,43,45,-1,47,49,51,-1,53,55,57,59,-1,61,63,65,67,-1,-1,-1,-1,-1,-1,-1,-1,-1,-1,-1,-1,-1,-1,-1,-1,-1,-1,-1,-1,-1,-1,-1,-1,-1,-1],"loss_changes":[1.0581463E2,6.099951E1,2.7405407E1,2.4468431E1,1.3380928E1,2.4251923E1,5.8351135E0,1.15019E1,0E0,2.6355677E0,1.2724472E1,1.6014105E1,1.7304398E1,3.0335693E0,0E0,1.0325609E1,0E0,0E0,1.2813375E0,7.6508636E0,1.3394046E1,1.774235E1,1.7616161E1,8.404761E0,0E0,3.0059414E0,0E0,1.5494851E1,6.195549E0,0E0,2.3113334E0,6.224182E0,1.3358061E1,0E0,4.842395E0,1.2925514E1,7.812788E0,1.3887703E1,0E0,7.5923843E0,2.144771E1,2.7302742E0,4.110349E0,0E0,0E0,0E0,0E0,0E0,0E0,0E0,0E0,0E0,0E0,0E0,0E0,0E0,0E0,0E0,0E0,0E0,0E0,0E0,0E0,0E0,0E0,0E0,0E0,0E0,0E0],"parents":[2147483647,0,0,1,1,2,2,3,3,4,4,5,5,6,6,7,7,9,9,10,10,11,11,12,12,13,13,15,15,18,18,19,19,20,20,21,21,22,22,23,23,25,25,27,27,28,28,30,30,31,31,32,32,34,34,35,35,36,36,37,37,39,39,40,40,41,41,42,42],"right_children":[2,4,6,8,10,12,14,16,-1,18,20,22,24,26,-1,28,-1,-1,30,32,34,36,38,40,-1,42,-1,44,46,-1,48,50,52,-1,54,56,58,60,-1,62,64,66,68,-1,-1,-1,-1,-1,-1,-1,-1,-1,-1,-1,-1,-1,-1,-1,-1,-1,-1,-1,-1,-1,-1,-1,-1,-1,-1],"split_conditions":[2.1252748E1,-3.2995886E-4,3.1248316E1,-1.8680365E1,-8.711225E-8,1.21309E2,1.4425967E-3,9.3142147E-4,-1.3396573E-1,1.4105859E1,2.8775635E-4,-2.3154398E1,-1.8443227E-4,3.606191E1,-9.67607E-2,7.608757E1,-1.3746855E-1,-7.3437735E-2,1.7279842E1,1.9390131E1,3.8774974E-8,5.30523E-4,9.421043E-4,4.4303198E-4,-1.5617593E-1,9.061363E-8,1.346009E-1,-5.232594E-8,2.0259203E1,1.229112E-1,-9.197006E-8,4.70136E0,1.9496489E1,-1.3734595E-1,5.4310238E-8,2.5655705E-4,2.9444712E1,7.0209204E-8,-1.4181477E-1,1.8940119E-8,1.3651807E-3,1.726885E-4,1.2417772E-3,1.1926135E-1,-1.4324626E-1,8.425891E-2,-1.1833936E-1,-9.021752E-2,8.998381E-2,-1.5823267E-2,-1.3241568E-1,1.001151E-1,-1.0620994E-1,1.4210194E-1,-7.5502686E-2,-4.675876E-2,8.6386845E-2,-1.297952E-1,2.1928288E-2,1.10395E-1,-1.3179252E-1,-1.2660706E-1,9.898725E-2,-1.4468881E-1,5.5929776E-2,1.0515063E-2,1.0040969E-1,-1.449903E-1,8.529381E-2],"split_indices":[1,6,1,0,7,2,5,5,0,1,6,0,6,1,0,2,0,0,1,1,7,5,5,5,0,7,0,7,1,0,7,1,1,0,7,5,1,7,0,7,5,5,5,0,0,0,0,0,0,0,0,0,0,0,0,0,0,0,0,0,0,0,0,0,0,0,0,0,0],"split_type":[0,0,0,0,0,0,0,0,0,0,0,0,0,0,0,0,0,0,0,0,0,0,0,0,0,0,0,0,0,0,0,0,0,0,0,0,0,0,0,0,0,0,0,0,0,0,0,0,0,0,0,0,0,0,0,0,0,0,0,0,0,0,0,0,0,0,0,0,0],"sum_hessian":[5.19936E2,2.4094514E2,2.7899078E2,8.439197E1,1.5655318E2,1.8964926E2,8.934154E1,7.366194E1,1.0730025E1,7.236524E0,1.4931665E2,1.36159E2,5.349026E1,8.805705E1,1.284483E0,7.009974E1,3.5622034E0,1.1047605E0,6.1317635E0,1.37566E2,1.1750667E1,6.353179E1,7.262721E1,4.08815E1,1.2608759E1,5.324015E1,3.4816902E1,1.1205437E1,5.8894306E1,3.450025E0,2.6817384E0,1.1995152E2,1.7614466E1,4.472721E0,7.2779455E0,4.4296917E1,1.9234873E1,6.901524E1,3.6119726E0,1.4159051E1,2.672245E1,5.0350586E1,2.8895643E0,4.2510357E0,6.9544005E0,5.7483612E1,1.4106916E0,1.0746531E0,1.6070851E0,7.560155E0,1.12391365E2,5.444427E0,1.2170039E1,6.274857E0,1.0030887E0,1.2815087E1,3.1481829E1,1.3632121E1,5.6027527E0,6.635974E1,2.6554985E0,1.6690089E0,1.2490042E1,1.3181829E1,1.354062E1,6.4807186E0,4.3869865E1,1.3621608E0,1.5274034E0],"tree_param":{"num_deleted":"0","num_feature":"9","num_nodes":"69","size_leaf_vector":"1"}},{"base_weights":[2.793099E-2,-4.267054E-1,4.5288575E-1,-2.1310139E-1,-1.372616E-1,3.0946505E-1,1.2917861E-1,2.3159173E-1,-5.0698036E-1,6.139928E-1,-8.092907E-2,5.7710826E-1,-5.430286E-1,-6.668445E-1,4.5957792E-1,-1.3876146E-1,6.6371644E-1,4.2859152E-1,-6.1191154E-1,-6.001718E-2,9.034181E-1,8.168254E-2,-1.5728371E-1,-4.0767482E-1,-1.4463343E-1,1.33654E-1,-6.3396506E-2,1.333855E-1,8.2136655E-1,-5.4410905E-1,8.819119E-1,-1.2499905E0,1.2725732E-1,-1.6663437E-1,2.9720621E-2,1.2073172E-1,2.206451E-2,-1.5244983E-1,1.1395105E-1,-9.257437E-2,5.5811882E-2,-1.4141339E-1,1.05126314E-1,-1.9285327E-1,5.15897E-2,9.962852E-2,-9.64755E-2,-1.5985982E-1,5.817809E-2,-6.4796526E-3,1.2627777E-1,-1.6544476E-1,-3.6144845E-2,8.407864E-2,-1.4870504E-1],"categories":[],"categories_nodes":[],"categories_segments":[],"categories_sizes":[],"default_left":[0,0,0,0,0,0,0,0,0,0,0,0,0,0,0,0,0,0,0,0,0,0,0,0,0,0,0,0,0,0,0,0,0,0,0,0,0,0,0,0,0,0,0,0,0,0,0,0,0,0,0,0,0,0,0],"id":10,"left_children":[1,3,5,7,-1,9,-1,11,13,15,17,19,21,23,25,-1,27,29,31,33,35,37,-1,39,-1,-1,41,43,45,47,49,51,53,-1,-1,-1,-1,-1,-1,-1,-1,-1,-1,-1,-1,-1,-1,-1,-1,-1,-1,-1,-1,-1,-1],"loss_changes":[9.672806E1,3.889397E1,2.4186516E1,2.500795E1,0E0,2.5800589E1,0E0,2.0359402E1,1.8042622E1,1.1199039E1,2.5658327E1,1.1359432E1,1.256299E1,1.42806015E1,6.5042896E0,0E0,9.462742E0,2.1519028E1,2.25775E1,8.663736E0,3.0845623E0,1.7759924E1,0E0,2.5432602E1,0E0,0E0,1.16078005E1,1.6183558E1,7.3764E0,1.4350536E1,7.2543354E0,3.541996E0,1.9027353E1,0E0,0E0,0E0,0E0,0E0,0E0,0E0,0E0,0E0,0E0,0E0,0E0,0E0,0E0,0E0,0E0,0E0,0E0,0E0,0E0,0E0,0E0],"parents":[2147483647,0,0,1,1,2,2,3,3,5,5,7,7,8,8,9,9,10,10,11,11,12,12,13,13,14,14,16,16,17,17,18,18,19,19,20,20,21,21,23,23,26,26,27,27,28,28,29,29,30,30,31,31,32,32],"right_children":[2,4,6,8,-1,10,-1,12,14,16,18,20,22,24,26,-1,28,30,32,34,36,38,-1,40,-1,-1,42,44,46,48,50,52,54,-1,-1,-1,-1,-1,-1,-1,-1,-1,-1,-1,-1,-1,-1,-1,-1,-1,-1,-1,-1,-1,-1],"split_conditions":[2.1962423E1,-1.8680365E1,3.5295025E1,-3.2995886E-4,-1.372616E-1,5.30523E-4,1.2917861E-1,1.2434634E1,2.8775635E-4,-2.8807922E1,-2.2110443E1,4.938519E-4,5.599191E-4,-8.11409E-6,3.1974175E-4,-1.3876146E-1,-6.1752607E-9,-2.3831596E1,1.2128832E-3,-5.660393E-4,8.2157814E-4,4.1732393E-4,-1.5728371E-1,-6.3466316E-5,-1.4463343E-1,1.33654E-1,5.4517644E-4,-2.4595745E0,-1.6819662E1,2.681759E1,7.2060636E-4,1.6116048E-4,-3.6405344E-4,-1.6663437E-1,2.9720621E-2,1.2073172E-1,2.206451E-2,-1.5244983E-1,1.1395105E-1,-9.257437E-2,5.5811882E-2,-1.4141339E-1,1.05126314E-1,-1.9285327E-1,5.15897E-2,9.962852E-2,-9.64755E-2,-1.5985982E-1,5.817809E-2,-6.4796526E-3,1.2627777E-1,-1.6544476E-1,-3.6144845E-2,8.407864E-2,-1.4870504E-1],"split_indices":[1,0,1,6,0,5,0,3,6,0,0,5,5,6,6,0,8,0,5,6,5,5,0,6,0,0,5,3,0,3,5,6,6,0,0,0,0,0,0,0,0,0,0,0,0,0,0,0,0,0,0,0,0,0,0],"split_type":[0,0,0,0,0,0,0,0,0,0,0,0,0,0,0,0,0,0,0,0,0,0,0,0,0,0,0,0,0,0,0,0,0,0,0,0,0,0,0,0,0,0,0,0,0,0,0,0,0,0,0,0,0,0,0],"sum_hessian":[4.995312E2,2.4085251E2,2.5867868E2,1.8944293E2,5.140957E1,2.1435045E2,4.432824E1,7.484883E1,1.145941E2,1.2085756E2,9.34929E1,5.2235577E1,2.2613255E1,9.885132E1,1.5742786E1,2.650382E0,1.18207184E2,4.735458E1,4.6138313E1,1.739869E1,3.4836887E1,1.2862139E1,9.751116E0,6.990559E1,2.8945734E1,6.774622E0,8.968164E0,2.7932707E1,9.0274475E1,1.4721064E1,3.263352E1,2.4872175E1,2.1266138E1,3.137395E0,1.4261295E1,2.813104E1,6.7058473E0,4.768875E0,8.093264E0,4.8713837E1,2.1191748E1,4.223911E0,4.7442536E0,3.60097E0,2.4331736E1,8.833018E1,1.944299E0,8.274071E0,6.446993E0,5.853152E0,2.6780365E1,2.0039978E1,4.8321977E0,1.5312817E1,5.9533215E0],"tree_param":{"num_deleted":"0","num_feature":"9","num_nodes":"55","size_leaf_vector":"1"}},{"base_weights":[1.4806333E-3,-3.0581278E-1,4.573272E-1,1.9925429E-1,-6.434667E-1,2.3262163E-1,9.490735E-1,5.8654743E-1,-3.400099E-1,-7.6603377E-1,2.3646016E-1,2.8254595E-1,-1.7866871E-1,1.004401E0,-2.8846525E-2,7.6237804E-1,-7.9835343E-1,-6.6592246E-1,2.4079248E-1,-1.039808E-1,-1.0414667E0,-1.2897503E-1,6.3895625E-1,4.709531E-1,-1.7285486E-1,3.2717541E-3,1.0290308E0,7.1481876E-2,-9.3574055E-2,-1.1481387E-1,8.743922E-1,4.0458716E-2,-1.4203934E-1,2.6681536E-1,-1.1047187E0,9.682353E-1,-6.9104064E-1,1.7754993E-1,-1.3201539E-1,-1.125275E0,-2.0378669E-1,8.869404E-1,-1.0116912E-1,8.157186E-1,8.358612E-2,-7.4654543E-1,4.3775246E-1,6.054312E-1,1.2705319E-1,5.8829915E-2,1.1051403E-1,-8.4886804E-2,5.9918478E-2,-5.7582434E-2,-1.6928326E-1,1.3391018E-1,1.8789768E-2,-1.2915225E-1,7.703284E-2,-2.233592E-2,1.6538267E-1,-5.7625238E-2,-1.4591832E-1,5.8719818E-2,-1.2454991E-1,1.3206172E-1,1.1058057E-2,-1.3903324E-1,1.0537955E-1,-1.16331324E-1,5.271082E-2,-1.2653144E-1,4.9746443E-2,7.563753E-2,-1.14083715E-1,1.14712074E-1,-7.693102E-2],"categories":[],"categories_nodes":[],"categories_segments":[],"categories_sizes":[],"default_left":[0,0,0,0,0,0,0,0,0,0,0,0,0,0,0,0,0,0,0,0,0,0,0,0,0,0,0,0,0,0,0,0,0,0,0,0,0,0,0,0,0,0,0,0,0,0,0,0,0,0,0,0,0,0,0,0,0,0,0,0,0,0,0,0,0,0,0,0,0,0,0,0,0,0,0,0,0],"id":11,"left_children":[1,3,5,7,9,11,13,15,17,19,21,23,-1,25,27,29,31,33,35,37,39,-1,41,43,45,-1,47,-1,-1,-1,49,-1,-1,51,53,55,57,59,-1,61,63,65,-1,67,69,71,73,75,-1,-1,-1,-1,-1,-1,-1,-1,-1,-1,-1,-1,-1,-1,-1,-1,-1,-1,-1,-1,-1,-1,-1,-1,-1,-1,-1,-1,-1],"loss_changes":[6.720816E1,4.8991013E1,2.076752E1,2.4105145E1,1.8861702E1,1.1673708E1,3.6738434E0,1.6684793E1,9.296108E0,2.70682E1,1.1672628E1,1.1428125E1,0E0,9.081917E-1,2.0539348E0,1.2301315E1,4.4278493E0,1.3270588E1,1.204861E1,1.3929497E1,6.7830353E0,0E0,6.7503285E0,1.2082991E1,1.3663382E1,0E0,7.246628E-1,0E0,0E0,0E0,9.2767334E-1,0E0,0E0,2.7036076E0,3.5786057E0,9.345083E-1,5.05159E0,1.7603909E1,0E0,7.6215897E0,7.342812E0,2.518219E0,0E0,1.0571682E1,1.8648949E1,9.015165E0,6.042177E0,5.8079643E0,0E0,0E0,0E0,0E0,0E0,0E0,0E0,0E0,0E0,0E0,0E0,0E0,0E0,0E0,0E0,0E0,0E0,0E0,0E0,0E0,0E0,0E0,0E0,0E0,0E0,0E0,0E0,0E0,0E0],"parents":[2147483647,0,0,1,1,2,2,3,3,4,4,5,5,6,6,7,7,8,8,9,9,10,10,11,11,13,13,14,14,15,15,16,16,17,17,18,18,19,19,20,20,22,22,23,23,24,24,26,26,30,30,33,33,34,34,35,35,36,36,37,37,39,39,40,40,41,41,43,43,44,44,45,45,46,46,47,47],"right_children":[2,4,6,8,10,12,14,16,18,20,22,24,-1,26,28,30,32,34,36,38,40,-1,42,44,46,-1,48,-1,-1,-1,50,-1,-1,52,54,56,58,60,-1,62,64,66,-1,68,70,72,74,76,-1,-1,-1,-1,-1,-1,-1,-1,-1,-1,-1,-1,-1,-1,-1,-1,-1,-1,-1,-1,-1,-1,-1,-1,-1,-1,-1,-1,-1],"split_conditions":[2.0579466E1,-3.2995886E-4,2.9655565E1,1.1563168E1,2.449507E-4,7.342119E-4,-1.7241095E1,-1.9049429E1,5.7553336E-8,-9.569119E-9,9.1260866E-9,1.3044911E2,-1.7866871E-1,-2.6022444E1,-1.2546264E-8,7.608757E1,-8.00682E0,7.822132E1,7.8826055E-8,-8.11409E-6,1.846769E1,-1.2897503E-1,5.4310238E-8,-1.7029082E-5,1.19066726E-7,3.2717541E-3,3.0715622E1,7.1481876E-2,-9.3574055E-2,-1.1481387E-1,-2.4098557E1,4.0458716E-2,-1.4203934E-1,1.4593643E1,-5.289706E-9,-3.3808083E-9,1.8379463E-8,-4.8085014E-5,-1.3201539E-1,1.1762837E-1,-2.2936666E1,-2.5326078E1,-1.0116912E-1,-9.9869455E-9,2.4088293E1,2.8940254E1,1.0784123E-8,2.2191492E-4,1.2705319E-1,5.8829915E-2,1.1051403E-1,-8.4886804E-2,5.9918478E-2,-5.7582434E-2,-1.6928326E-1,1.3391018E-1,1.8789768E-2,-1.2915225E-1,7.703284E-2,-2.233592E-2,1.6538267E-1,-5.7625238E-2,-1.4591832E-1,5.8719818E-2,-1.2454991E-1,1.3206172E-1,1.1058057E-2,-1.3903324E-1,1.0537955E-1,-1.16331324E-1,5.271082E-2,-1.2653144E-1,4.9746443E-2,7.563753E-2,-1.14083715E-1,1.14712074E-1,-7.693102E-2],"split_indices":[3,6,3,3,6,6,0,0,7,7,7,2,0,0,8,2,3,2,7,6,3,0,7,6,7,0,3,0,0,0,0,0,0,3,7,8,8,6,0,3,0,0,0,8,3,3,8,6,0,0,0,0,0,0,0,0,0,0,0,0,0,0,0,0,0,0,0,0,0,0,0,0,0,0,0,0,0],"split_type":[0,0,0,0,0,0,0,0,0,0,0,0,0,0,0,0,0,0,0,0,0,0,0,0,0,0,0,0,0,0,0,0,0,0,0,0,0,0,0,0,0,0,0,0,0,0,0,0,0,0,0,0,0,0,0,0,0,0,0,0,0,0,0,0,0,0,0,0,0,0,0,0,0,0,0,0,0],"sum_hessian":[4.7825522E2,2.8522433E2,1.930309E2,1.1386444E2,1.713599E2,1.3362622E2,5.940468E1,6.670187E1,4.7162563E1,1.5089452E2,2.046537E1,1.3066885E2,2.9573736E0,5.6621765E1,2.782913E0,5.9674145E1,7.027733E0,3.0629147E1,1.6533419E1,4.5003975E1,1.0589054E2,4.2135706E0,1.6251799E1,9.30772E1,3.7591652E1,1.8476136E0,5.477415E1,1.2869254E0,1.4959877E0,3.0850546E0,5.658909E1,1.7007251E0,5.327008E0,9.556327E0,2.107282E1,9.5296545E0,7.003763E0,3.5487988E1,9.51599E0,9.563056E1,1.0259982E1,1.4405171E1,1.8466281E0,4.8351208E1,4.472599E1,1.9679358E1,1.7912296E1,1.0040774E1,4.4733376E1,1.2724123E1,4.3864967E1,1.3885678E0,8.167759E0,8.921607E0,1.2151214E1,7.030519E0,2.4991357E0,5.6201663E0,1.383597E0,2.750155E1,7.9864354E0,1.9090994E1,7.6539566E1,5.520301E0,4.739681E0,1.0221748E1,4.1834226E0,1.8362247E0,4.651498E1,1.0885174E1,3.3840816E1,1.5428702E1,4.2506547E0,1.6025848E1,1.8864484E0,8.017171E0,2.023603E0],"tree_param":{"num_deleted":"0","num_feature":"9","num_nodes":"77","size_leaf_vector":"1"}},{"base_weights":[6.0472665E-3,-2.1808565E-1,6.660257E-1,-6.623986E-2,-8.2152915E-1,-2.7023334E-2,7.982557E-1,-5.100474E-1,1.1913593E-1,-1.3234666E-1,-7.464206E-2,7.2382057E-1,-6.606375E-1,8.39659E-1,-9.9522784E-2,2.5920033E-1,-8.4041363E-1,1.8214574E-1,-8.5293716E-1,4.3140918E-1,-1.3306834E-1,-0E0,1.074737E-1,3.4856254E-1,-1.6331238E-1,1.0043529E0,6.303715E-1,-1.2781127E-1,8.991107E-1,9.607742E-2,-9.084171E-1,-9.896669E-1,2.4316075E-1,9.124772E-2,-1.4012884E-1,-1.1749222E-1,6.4518183E-1,9.40404E-2,-0E0,-0E0,1.21981695E-1,3.8861948E-1,1.2444579E-1,1.514185E-1,4.451539E-2,-1.411278E-1,-6.9431394E-2,-1.6434404E-1,4.6599768E-2,-1.2968461E-1,3.2745235E-2,1.1034916E-1,-1.9660402E-2,-9.1880515E-2,7.451007E-2,-0E0,1.08852714E-1],"categories":[],"categories_nodes":[],"categories_segments":[],"categories_sizes":[],"default_left":[0,0,0,0,0,0,0,0,0,0,0,0,0,0,0,0,0,0,0,0,0,0,0,0,0,0,0,0,0,0,0,0,0,0,0,0,0,0,0,0,0,0,0,0,0,0,0,0,0,0,0,0,0,0,0,0,0],"id":12,"left_children":[1,3,5,7,9,11,13,15,17,-1,19,21,23,25,-1,27,29,31,33,35,-1,-1,-1,37,-1,39,41,-1,43,-1,45,47,49,-1,-1,-1,51,-1,53,-1,-1,55,-1,-1,-1,-1,-1,-1,-1,-1,-1,-1,-1,-1,-1,-1,-1],"loss_changes":[6.689808E1,3.0396114E1,1.08605995E1,2.2389982E1,1.59873085E1,8.982866E0,7.0619164E0,2.0758097E1,1.143671E1,0E0,1.2392246E1,1.2016273E0,8.843426E0,2.2427979E0,0E0,2.1637512E1,6.899723E0,1.2631611E1,7.5106773E0,4.7972364E0,0E0,0E0,0E0,9.0738475E-1,0E0,3.4214401E0,4.020466E0,0E0,2.639576E0,0E0,4.171467E0,6.0678043E0,9.680649E0,0E0,0E0,0E0,3.9024692E0,0E0,1.8923345E0,0E0,0E0,6.785779E0,0E0,0E0,0E0,0E0,0E0,0E0,0E0,0E0,0E0,0E0,0E0,0E0,0E0,0E0,0E0],"parents":[2147483647,0,0,1,1,2,2,3,3,4,4,5,5,6,6,7,7,8,8,10,10,11,11,12,12,13,13,15,15,16,16,17,17,18,18,19,19,23,23,25,25,26,26,28,28,30,30,31,31,32,32,36,36,38,38,41,41],"right_children":[2,4,6,8,10,12,14,16,18,-1,20,22,24,26,-1,28,30,32,34,36,-1,-1,-1,38,-1,40,42,-1,44,-1,46,48,50,-1,-1,-1,52,-1,54,-1,-1,56,-1,-1,-1,-1,-1,-1,-1,-1,-1,-1,-1,-1,-1,-1,-1],"split_conditions":[2.867826E1,1.4344286E2,2.384401E1,1.62676E1,2.3549835E1,-5.364042E0,1.4425967E-3,1.6925668E0,9.3142147E-4,-1.3234666E-1,2.1786879E1,-1.5065739E-8,2.9024408E1,4.6867653E-4,-9.9522784E-2,4.3632757E-4,-1.3421413E-7,-3.2216468E-1,7.180542E0,-7.198994E-9,-1.3306834E-1,-0E0,1.074737E-1,-9.197006E-8,-1.6331238E-1,7.822132E1,3.606191E1,-1.2781127E-1,-9.569119E-9,9.607742E-2,9.527872E1,2.9812703E-9,5.1222168E1,9.124772E-2,-1.4012884E-1,-1.1749222E-1,1.056308E-10,9.40404E-2,1.19066726E-7,-0E0,1.21981695E-1,1.1847434E-8,1.2444579E-1,1.514185E-1,4.451539E-2,-1.411278E-1,-6.9431394E-2,-1.6434404E-1,4.6599768E-2,-1.2968461E-1,3.2745235E-2,1.1034916E-1,-1.9660402E-2,-9.1880515E-2,7.451007E-2,-0E0,1.08852714E-1],"split_indices":[1,2,3,1,1,3,5,3,5,0,3,8,1,5,0,5,7,3,3,8,0,0,0,7,0,2,1,0,7,0,2,8,2,0,0,0,8,0,7,0,0,8,0,0,0,0,0,0,0,0,0,0,0,0,0,0,0],"split_type":[0,0,0,0,0,0,0,0,0,0,0,0,0,0,0,0,0,0,0,0,0,0,0,0,0,0,0,0,0,0,0,0,0,0,0,0,0,0,0,0,0,0,0,0,0,0,0,0,0,0,0,0,0,0,0,0,0],"sum_hessian":[4.4989676E2,3.3562967E2,1.14267105E2,2.6919315E2,6.643653E1,1.786129E1,9.6405815E1,7.971129E1,1.8948186E2,4.54395E1,2.099703E1,7.8321104E0,1.002918E1,9.457567E1,1.8301426E0,2.3596148E1,5.6115143E1,1.7876823E2,1.0713617E1,1.4267966E1,6.729063E0,1.9913756E0,5.840735E0,4.1981173E0,5.8310623E0,5.064693E1,4.3928738E1,7.166515E0,1.6429632E1,1.7063515E0,5.4408794E1,8.097892E0,1.7067035E2,1.62813E0,9.085487E0,1.3126479E0,1.2955318E1,1.6738204E0,2.5242968E0,2.3941908E0,4.825274E1,2.9912748E1,1.4015989E1,8.103903E0,8.32573E0,2.499709E1,2.9411703E1,6.372929E0,1.7249625E0,4.352939E0,1.663174E2,9.649303E0,3.3060157E0,1.1847657E0,1.3395312E0,1.7779734E1,1.2133015E1],"tree_param":{"num_deleted":"0","num_feature":"9","num_nodes":"57","size_leaf_vector":"1"}},{"base_weights":[4.1078895E-2,-3.5134837E-1,3.7064224E-1,1.738944E-1,-5.720225E-1,2.0209438E-1,8.5884255E-1,4.8366335E-1,-6.039693E-1,-1.0707473E0,-3.44991E-1,4.2903402E-1,-4.9750205E-2,9.201919E-1,-1.0059008E-1,-1.5508395E-1,5.642815E-1,8.514663E-2,-1.378617E-1,-1.3799249E-1,3.8361803E-1,9.1949433E-1,-5.1308614E-1,-9.8138875E-1,5.4798126E-1,-6.026293E-1,2.870529E-1,9.457061E-1,-0E0,-1.0843346E-1,6.469732E-1,-1.279456E-1,1.4261861E-1,1.2868738E-1,-7.321024E-2,-2.3293537E-1,1.6805787E0,6.0015E-1,-8.5046417E-1,7.535418E-2,-1.846682E-1,6.5180516E-1,-3.1600705E-1,1.1126354E-1,-7.694009E-1,6.917316E-1,-7.496698E-2,5.538557E-1,1.1410587E-1,8.338871E-2,-9.947244E-2,8.320543E-2,-1.02831356E-1,4.6719185E-1,9.012281E-2,-1.128907E-1,1.0771437E-1,-2.384838E-2,-1.2880987E-1,-5.8446113E-2,8.123139E-2,7.8009754E-2,-1.595004E-1,-1.6342576E-1,-4.408985E-2,9.432599E-2,-8.497738E-2,-1.3220488E-1,3.696308E-2,-0E0,9.937726E-2],"categories":[],"categories_nodes":[],"categories_segments":[],"categories_sizes":[],"default_left":[0,0,0,0,0,0,0,0,0,0,0,0,0,0,0,0,0,0,0,0,0,0,0,0,0,0,0,0,0,0,0,0,0,0,0,0,0,0,0,0,0,0,0,0,0,0,0,0,0,0,0,0,0,0,0,0,0,0,0,0,0,0,0,0,0,0,0,0,0,0,0],"id":13,"left_children":[1,3,5,7,9,11,13,15,17,19,21,23,25,27,-1,-1,29,31,-1,-1,33,35,37,39,41,43,45,47,-1,-1,49,-1,-1,-1,-1,51,53,55,57,-1,-1,59,61,-1,63,65,67,69,-1,-1,-1,-1,-1,-1,-1,-1,-1,-1,-1,-1,-1,-1,-1,-1,-1,-1,-1,-1,-1,-1,-1],"loss_changes":[5.7651047E1,2.373907E1,1.9435253E1,1.4530506E1,1.5454071E1,1.0566078E1,6.997345E0,6.5075226E0,7.4760184E0,8.986019E0,2.1342342E1,1.6310247E1,1.620166E1,1.4049683E0,0E0,0E0,5.474923E0,1.1911927E1,0E0,0E0,3.4324772E0,1.1029174E1,3.3782974E1,8.594505E0,8.300526E0,8.997758E0,8.083645E0,1.4102554E-1,0E0,0E0,5.15086E0,0E0,0E0,0E0,0E0,3.514515E0,1.1820784E1,1.1551239E1,1.1298458E1,0E0,0E0,5.4834023E0,1.1002865E1,0E0,6.621662E0,5.1373615E0,1.2514742E1,1.3410811E0,0E0,0E0,0E0,0E0,0E0,0E0,0E0,0E0,0E0,0E0,0E0,0E0,0E0,0E0,0E0,0E0,0E0,0E0,0E0,0E0,0E0,0E0,0E0],"parents":[2147483647,0,0,1,1,2,2,3,3,4,4,5,5,6,6,7,7,8,8,9,9,10,10,11,11,12,12,13,13,16,16,17,17,20,20,21,21,22,22,23,23,24,24,25,25,26,26,27,27,30,30,35,35,36,36,37,37,38,38,41,41,42,42,44,44,45,45,46,46,47,47],"right_children":[2,4,6,8,10,12,14,16,18,20,22,24,26,28,-1,-1,30,32,-1,-1,34,36,38,40,42,44,46,48,-1,-1,50,-1,-1,-1,-1,52,54,56,58,-1,-1,60,62,-1,64,66,68,70,-1,-1,-1,-1,-1,-1,-1,-1,-1,-1,-1,-1,-1,-1,-1,-1,-1,-1,-1,-1,-1,-1,-1],"split_conditions":[2.1252748E1,-3.8545742E-4,2.9415804E1,1.2434634E1,3.7665616E-4,5.30523E-4,1.2417772E-3,-6.554186E-8,4.396562E-4,1.6555688E-8,4.0957797E-4,-1.7257749E-8,7.948671E-4,1.0428758E-7,-1.0059008E-1,-1.5508395E-1,-1.2269968E0,4.1732393E-4,-1.378617E-1,-1.3799249E-1,1.7327578E-8,9.3766775E0,1.6925668E0,-3.280866E-8,6.153978E-8,2.147039E1,9.421043E-4,3.1321558E1,-0E0,-1.0843346E-1,9.3142147E-4,-1.279456E-1,1.4261861E-1,1.2868738E-1,-7.321024E-2,-3.602245E-4,1.2269504E1,5.2596594E-4,-1.6562419E-8,7.535418E-2,-1.846682E-1,-1.0402369E-7,-7.072105E-4,1.1126354E-1,3.5037964E-9,6.868611E-8,1.2128832E-3,3.0148859E1,1.1410587E-1,8.338871E-2,-9.947244E-2,8.320543E-2,-1.02831356E-1,4.6719185E-1,9.012281E-2,-1.128907E-1,1.0771437E-1,-2.384838E-2,-1.2880987E-1,-5.8446113E-2,8.123139E-2,7.8009754E-2,-1.595004E-1,-1.6342576E-1,-4.408985E-2,9.432599E-2,-8.497738E-2,-1.3220488E-1,3.696308E-2,-0E0,9.937726E-2],"split_indices":[1,6,3,3,5,5,5,7,5,8,5,8,5,7,0,0,3,5,0,0,8,3,3,7,7,1,5,1,0,0,5,0,0,0,0,6,1,5,7,0,0,7,6,0,8,7,5,3,0,0,0,0,0,0,0,0,0,0,0,0,0,0,0,0,0,0,0,0,0,0,0],"split_type":[0,0,0,0,0,0,0,0,0,0,0,0,0,0,0,0,0,0,0,0,0,0,0,0,0,0,0,0,0,0,0,0,0,0,0,0,0,0,0,0,0,0,0,0,0,0,0,0,0,0,0,0,0,0,0,0,0,0,0,0,0,0,0,0,0,0,0,0,0,0,0],"sum_hessian":[4.446269E2,2.0235101E2,2.4227588E2,5.9327335E1,1.4302368E2,1.8131056E2,6.096531E1,4.296678E1,1.6360552E1,4.3530113E1,9.949356E1,9.606083E1,8.524973E1,5.936344E1,1.6018671E0,1.2306374E0,4.1736145E1,7.4740276E0,8.886524E0,4.0289314E1,3.2407987E0,1.10956E1,8.839796E1,6.890086E0,8.9170746E1,3.25904E1,5.2659332E1,5.7745842E1,1.6176002E0,1.6107163E0,4.012543E1,3.498704E0,3.9753237E0,2.0938861E0,1.1469127E0,4.339058E0,6.756542E0,2.016864E1,6.822932E1,1.7121879E0,5.1778984E0,8.016218E1,9.00857E0,2.6340985E0,2.9956305E1,2.5188698E1,2.7470634E1,7.9980097E0,4.9747833E1,3.866261E1,1.4628197E0,1.4913124E0,2.8477457E0,1.194709E0,5.5618334E0,3.145059E0,1.702358E1,2.099388E1,4.723544E1,3.1124701E0,7.7049706E1,4.569818E0,4.4387517E0,1.016564E1,1.9790665E1,2.3579191E1,1.6095077E0,7.414063E0,2.0056572E1,3.2483592E0,4.7496505E0],"tree_param":{"num_deleted":"0","num_feature":"9","num_nodes":"71","size_leaf_vector":"1"}},{"base_weights":[1.3946859E-2,-2.5359753E-1,4.744388E-1,-9.939099E-2,-8.908277E-1,3.2951194E-1,1.1907311E-1,2.4231723E-1,-3.7936854E-1,-1.2827133E-1,-0E0,4.7030702E-1,-2.802745E-1,-3.679575E-1,4.134325E-1,8.722691E-1,-4.740793E-1,6.7532575E-1,-5.083017E-1,7.4964976E-1,1.4948499E-1,5.499018E-1,-1.7286602E-1,-1.0154328E0,1.6982688E-1,5.0973636E-1,-1.2724698E-1,1.2358725E-1,1.7745307E-2,-6.6346526E-1,-1.295196E-1,2.987163E-3,1.01603284E-1,5.7543553E-2,-1.16884E-1,-3.5215196E-1,9.1003644E-1,4.7259974E-1,-6.2847245E-1,8.930598E-1,-2.5455755E-1,-1.6454965E-2,-1.7836915E-1,7.4504994E-2,-1.459991E-1,1.0208322E-1,3.9835464E-2,-1.3315222E-1,-4.7751624E-2,3.9982554E-2,-1.0936114E-1,-1.7455207E-1,7.237159E-2,1.2008654E-1,3.4282234E-2,6.876468E-3,1.3040131E-1,-1.6409782E-1,7.1092467E-3,6.170271E-3,1.14342034E-1,5.0582375E-2,-1.0000561E-1],"categories":[],"categories_nodes":[],"categories_segments":[],"categories_sizes":[],"default_left":[0,0,0,0,0,0,0,0,0,0,0,0,0,0,0,0,0,0,0,0,0,0,0,0,0,0,0,0,0,0,0,0,0,0,0,0,0,0,0,0,0,0,0,0,0,0,0,0,0,0,0,0,0,0,0,0,0,0,0,0,0,0,0],"id":14,"left_children":[1,3,5,7,9,11,-1,13,15,-1,17,19,21,23,25,27,29,31,33,35,37,39,-1,41,43,45,-1,-1,-1,47,49,-1,-1,-1,-1,51,53,55,57,59,61,-1,-1,-1,-1,-1,-1,-1,-1,-1,-1,-1,-1,-1,-1,-1,-1,-1,-1,-1,-1,-1,-1],"loss_changes":[5.166998E1,2.5494923E1,1.1822983E1,2.0569935E1,1.0290306E1,1.0812448E1,0E0,1.0122486E1,1.4094585E1,0E0,3.900167E0,8.666798E0,2.4305822E1,7.679345E0,1.114796E1,5.882139E-1,6.84568E0,2.6672196E-1,3.8077784E0,9.862553E0,1.2332588E1,4.2400494E0,0E0,3.7803516E0,8.07454E0,3.746727E0,0E0,0E0,0E0,7.7386856E0,1.6455557E1,0E0,0E0,0E0,0E0,8.7492695E0,3.1755905E0,9.057423E0,8.439799E0,4.0842915E-1,2.1939778E0,0E0,0E0,0E0,0E0,0E0,0E0,0E0,0E0,0E0,0E0,0E0,0E0,0E0,0E0,0E0,0E0,0E0,0E0,0E0,0E0,0E0,0E0],"parents":[2147483647,0,0,1,1,2,2,3,3,4,4,5,5,7,7,8,8,10,10,11,11,12,12,13,13,14,14,15,15,16,16,17,17,18,18,19,19,20,20,21,21,23,23,24,24,25,25,29,29,30,30,35,35,36,36,37,37,38,38,39,39,40,40],"right_children":[2,4,6,8,10,12,-1,14,16,-1,18,20,22,24,26,28,30,32,34,36,38,40,-1,42,44,46,-1,-1,-1,48,50,-1,-1,-1,-1,52,54,56,58,60,62,-1,-1,-1,-1,-1,-1,-1,-1,-1,-1,-1,-1,-1,-1,-1,-1,-1,-1,-1,-1,-1,-1],"split_conditions":[2.5305992E1,1.429066E2,3.5295025E1,-2.8194298E-4,2.3549835E1,5.6513386E-8,1.1907311E-1,3.1987161E-4,-8.711225E-8,-1.2827133E-1,-6.346133E-4,4.3132808E-4,-3.6405344E-4,9.667338E1,9.232986E-4,-1.1103709E-4,1.9390131E1,1.4042073E-3,2.3681295E1,7.899316E1,1.0507975E2,1.7345386E2,-1.7286602E-1,1.4419683E-9,-2.1223785E-9,-8.616209E-9,-1.2724698E-1,1.2358725E-1,1.7745307E-2,3.7665616E-4,5.0741615E-4,2.987163E-3,1.01603284E-1,5.7543553E-2,-1.16884E-1,7.865683E-9,1.7224044E-4,7.8040874E-4,8.605195E-4,3.2498626E-4,2.6760103E1,-1.6454965E-2,-1.7836915E-1,7.4504994E-2,-1.459991E-1,1.0208322E-1,3.9835464E-2,-1.3315222E-1,-4.7751624E-2,3.9982554E-2,-1.0936114E-1,-1.7455207E-1,7.237159E-2,1.2008654E-1,3.4282234E-2,6.876468E-3,1.3040131E-1,-1.6409782E-1,7.1092467E-3,6.170271E-3,1.14342034E-1,5.0582375E-2,-1.0000561E-1],"split_indices":[1,2,1,6,1,7,0,5,7,0,6,5,6,2,5,6,1,5,1,2,2,2,0,7,8,8,0,0,0,5,5,0,0,0,0,8,6,5,5,5,1,0,0,0,0,0,0,0,0,0,0,0,0,0,0,0,0,0,0,0,0,0,0],"split_type":[0,0,0,0,0,0,0,0,0,0,0,0,0,0,0,0,0,0,0,0,0,0,0,0,0,0,0,0,0,0,0,0,0,0,0,0,0,0,0,0,0,0,0,0,0,0,0,0,0,0,0,0,0,0,0,0,0,0,0,0,0,0,0],"sum_hessian":[4.1756802E2,2.6368512E2,1.5388293E2,2.1334518E2,5.0339924E1,1.2363515E2,3.024778E1,9.542859E1,1.17916595E2,4.006928E1,1.0270645E1,1.0111018E2,2.252496E1,2.0217918E1,7.521067E1,7.668803E0,1.10247795E2,4.364488E0,5.9061575E0,5.2956417E1,4.815377E1,1.3395867E1,9.129092E0,9.3159685E0,1.0901951E1,7.133251E1,3.8781617E0,5.30133E0,2.3674731E0,7.002619E1,4.02216E1,1.7072283E0,2.65726E0,1.7041408E0,4.2020164E0,6.3104854E0,4.664593E1,3.45582E1,1.3595571E1,9.719563E0,3.6763058E0,4.114804E0,5.2011647E0,8.625767E0,2.2761836E0,1.9924679E1,5.140783E1,2.2087008E1,4.7939186E1,2.5316523E1,1.4905077E1,2.9466307E0,3.3638544E0,3.7293015E1,9.35292E0,2.205528E1,1.2502917E1,6.3149233E0,7.2806478E0,1.6000392E0,8.119523E0,1.4753393E0,2.2009664E0],"tree_param":{"num_deleted":"0","num_feature":"9","num_nodes":"63","size_leaf_vector":"1"}},{"base_weights":[2.7530106E-2,-1.1498295E-1,7.3266697E-1,2.0402639E-1,-3.4559548E-1,8.0270106E-1,-2.1197946E-1,2.1372396E-2,7.1196324E-1,-8.801899E-1,-2.204561E-1,5.9163636E-1,1.18218414E-1,-1.1371252E-1,6.647365E-2,6.741074E-1,-1.533218E-1,-9.137034E-2,7.9723674E-1,-7.0578833E-3,-1.042227E0,2.5587013E-1,-2.6236945E-1,-6.453823E-2,7.4379903E-1,8.469247E-1,-1.0187194E-1,-2.6192892E-1,6.791462E-1,1.0461187E-1,9.142E-1,1.3495432E-1,-1.0706675E-1,-1.3238792E-1,5.791407E-2,-1.5015084E-1,-9.133921E-1,-1.8767267E-1,3.1677634E-1,8.4853077E-1,-2.0315361E-1,-1.109193E-2,1.1941914E-1,-1.1803898E-1,2.5702822E-3,-7.295954E-2,1.08400114E-1,-1.24540135E-1,8.1573345E-2,2.4344135E-2,1.1211934E-1,-3.4525085E-2,2.7007185E-2,-1.3803428E-1,5.875403E-2,8.335431E-2,-5.3844124E-2,-0E0,1.0654105E-1,-1.2889045E-1,6.6013046E-2],"categories":[],"categories_nodes":[],"categories_segments":[],"categories_sizes":[],"default_left":[0,0,0,0,0,0,0,0,0,0,0,0,0,0,0,0,0,0,0,0,0,0,0,0,0,0,0,0,0,0,0,0,0,0,0,0,0,0,0,0,0,0,0,0,0,0,0,0,0,0,0,0,0,0,0,0,0,0,0,0,0],"id":15,"left_children":[1,3,5,7,9,11,13,15,17,19,21,23,-1,-1,-1,25,27,-1,29,31,33,-1,35,37,39,41,-1,43,45,47,49,-1,-1,-1,-1,51,53,-1,55,57,59,-1,-1,-1,-1,-1,-1,-1,-1,-1,-1,-1,-1,-1,-1,-1,-1,-1,-1,-1,-1],"loss_changes":[4.1580425E1,2.5230072E1,4.9489937E0,1.2937663E1,1.2757317E1,2.1110039E0,3.4440258E0,1.2395517E1,5.119068E0,4.7801514E0,1.6187788E1,3.9174414E0,0E0,0E0,0E0,6.6058483E0,7.4909644E0,0E0,2.4079819E0,7.857048E0,5.852604E0,0E0,1.1216371E1,4.884944E0,3.328514E0,4.3293047E0,0E0,1.6758913E1,3.7130566E0,4.785998E0,6.906166E-1,0E0,0E0,0E0,0E0,8.086206E0,1.0071575E1,0E0,2.1146889E0,1.5656853E0,2.7266731E0,0E0,0E0,0E0,0E0,0E0,0E0,0E0,0E0,0E0,0E0,0E0,0E0,0E0,0E0,0E0,0E0,0E0,0E0,0E0,0E0],"parents":[2147483647,0,0,1,1,2,2,3,3,4,4,5,5,6,6,7,7,8,8,9,9,10,10,11,11,15,15,16,16,18,18,19,19,20,20,22,22,23,23,24,24,25,25,27,27,28,28,29,29,30,30,35,35,36,36,38,38,39,39,40,40],"right_children":[2,4,6,8,10,12,14,16,18,20,22,24,-1,-1,-1,26,28,-1,30,32,34,-1,36,38,40,42,-1,44,46,48,50,-1,-1,-1,-1,52,54,-1,56,58,60,-1,-1,-1,-1,-1,-1,-1,-1,-1,-1,-1,-1,-1,-1,-1,-1,-1,-1,-1,-1],"split_conditions":[3.1248316E1,-8.125662E0,1.6130518E1,2.4635538E1,1.2119428E1,3.5295025E1,3.5304614E-4,-1.6562419E-8,-2.7061987E1,4.70136E0,1.2269504E1,2.2002064E-4,1.18218414E-1,-1.1371252E-1,6.647365E-2,-3.785863E-5,2.449507E-4,-9.137034E-2,-7.198994E-9,-2.962206E0,1.97838E-8,2.5587013E-1,5.9093264E-8,-1.31722055E-8,9.061363E-8,3.0815924E-4,-1.0187194E-1,1.7520546E1,-1.5845614E1,3.982845E-4,1.917642E-4,1.3495432E-1,-1.0706675E-1,-1.3238792E-1,5.791407E-2,1.1847434E-8,1.7118149E1,-1.8767267E-1,-3.2666905E0,-1.481939E-7,3.3886684E1,-1.109193E-2,1.1941914E-1,-1.1803898E-1,2.5702822E-3,-7.295954E-2,1.08400114E-1,-1.24540135E-1,8.1573345E-2,2.4344135E-2,1.1211934E-1,-3.4525085E-2,2.7007185E-2,-1.3803428E-1,5.875403E-2,8.335431E-2,-5.3844124E-2,-0E0,1.0654105E-1,-1.2889045E-1,6.6013046E-2],"split_indices":[1,4,4,1,1,1,6,7,4,1,1,5,0,0,0,6,6,0,8,4,8,0,7,8,7,5,0,1,4,5,5,0,0,0,0,8,4,0,4,7,1,0,0,0,0,0,0,0,0,0,0,0,0,0,0,0,0,0,0,0,0],"split_type":[0,0,0,0,0,0,0,0,0,0,0,0,0,0,0,0,0,0,0,0,0,0,0,0,0,0,0,0,0,0,0,0,0,0,0,0,0,0,0,0,0,0,0,0,0,0,0,0,0,0,0,0,0,0,0,0,0,0,0,0,0],"sum_hessian":[4.1016916E2,3.410805E2,6.908866E1,1.4236374E2,1.9871675E2,6.4814575E1,4.2740903E0,1.057378E2,3.6625942E1,3.6433315E1,1.6228345E2,3.5545185E1,2.9269386E1,2.357123E0,1.9169675E0,2.2514378E1,8.322343E1,1.4540728E0,3.5171867E1,6.2017465E0,3.023157E1,2.0887866E0,1.6019466E2,6.2229204E0,2.9322266E1,2.0737171E1,1.7772074E0,7.439655E1,8.826868E0,5.753923E0,2.9417944E1,2.4572263E0,3.7445204E0,2.8597708E1,1.6338612E0,1.3776263E2,2.2432024E1,1.0893804E0,5.13354E0,2.6857056E1,2.4652097E0,3.1926868E0,1.7544483E1,2.0163933E1,5.4232624E1,1.0846856E0,7.7421827E0,1.5615454E0,4.1923776E0,3.1414526E0,2.6276493E1,9.9948166E1,3.781446E1,1.8971954E1,3.4600713E0,3.7588043E0,1.3747356E0,2.6610346E0,2.4196022E1,1.2717471E0,1.1934626E0],"tree_param":{"num_deleted":"0","num_feature":"9","num_nodes":"61","size_leaf_vector":"1"}},{"base_weights":[-7.777498E-3,-3.3373463E-1,2.6364517E-1,-9.49084E-2,-7.524255E-1,1.4281009E-1,7.551598E-1,-1.7992188E-1,1.8603002E-1,-1.052399E0,4.8817852E-1,2.682075E-1,-4.9834448E-1,9.25616E-2,-6.5474818E-3,-8.75161E-2,-1.24031894E-1,-1.3533002E-1,-1.4140597E-1,6.9215983E-1,-9.115383E-2,3.8736218E-1,-1.2777355E-1,5.240347E-1,-7.863972E-1,-1.5173598E-1,2.3333457E-1,6.1970253E-2,-1.0862436E-1,-4.9238574E-2,1.18467584E-1,-6.504342E-1,4.4347617E-1,2.1615407E-1,-1.3416041E-1,8.1240565E-2,-0E0,-1.5224828E-1,-2.5255958E-2,4.9625784E-2,-3.9740287E-2,8.4020965E-2,-1.1416985E-1,6.811459E-2,-1.5605915E-1,7.905194E-2,2.7049635E-2,-1.3684765E-1,6.646E-2,4.226059E-2,-1.5761875E-1],"categories":[],"categories_nodes":[],"categories_segments":[],"categories_sizes":[],"default_left":[0,0,0,0,0,0,0,0,0,0,0,0,0,0,0,0,0,0,0,0,0,0,0,0,0,0,0,0,0,0,0,0,0,0,0,0,0,0,0,0,0,0,0,0,0,0,0,0,0,0,0],"id":16,"left_children":[1,3,5,7,9,11,13,15,-1,17,19,21,23,-1,-1,25,-1,-1,27,29,-1,31,33,35,37,39,-1,-1,-1,41,-1,43,45,47,-1,-1,-1,-1,49,-1,-1,-1,-1,-1,-1,-1,-1,-1,-1,-1,-1],"loss_changes":[3.373065E1,1.6978107E1,1.1862709E1,1.5860556E1,2.3736706E1,1.3450762E1,1.9987316E0,8.382225E0,0E0,5.171383E0,3.4526074E0,6.7949343E0,8.300333E0,0E0,0E0,1.2755079E1,0E0,0E0,4.3829656E0,3.2473707E0,0E0,6.4393826E0,1.207011E1,4.1088474E-1,8.2944975E0,1.0956228E1,0E0,0E0,0E0,3.1704867E0,0E0,5.5540648E0,4.8426056E0,1.2544545E1,0E0,0E0,0E0,0E0,5.919225E0,0E0,0E0,0E0,0E0,0E0,0E0,0E0,0E0,0E0,0E0,0E0,0E0],"parents":[2147483647,0,0,1,1,2,2,3,3,4,4,5,5,6,6,7,7,9,9,10,10,11,11,12,12,15,15,18,18,19,19,21,21,22,22,23,23,24,24,25,25,29,29,31,31,32,32,33,33,38,38],"right_children":[2,4,6,8,10,12,14,16,-1,18,20,22,24,-1,-1,26,-1,-1,28,30,-1,32,34,36,38,40,-1,-1,-1,42,-1,44,46,48,-1,-1,-1,-1,50,-1,-1,-1,-1,-1,-1,-1,-1,-1,-1,-1,-1],"split_conditions":[2.1252748E1,-2.962206E0,2.9655565E1,-3.104122E0,1.3272288E1,1.1963185E1,1.0428758E-7,-5.078486E0,1.8603002E-1,1.4894783E-8,7.8635197E0,6.153978E-8,1.4407181E1,9.25616E-2,-6.5474818E-3,-5.1734405E0,-1.24031894E-1,-1.3533002E-1,-4.97411E-4,6.5388017E0,-9.115383E-2,-1.9328967E-8,-8.125662E0,2.6225737E1,2.4088293E1,-1.6562419E-8,2.3333457E-1,6.1970253E-2,-1.0862436E-1,1.4444806E1,1.18467584E-1,2.2084543E1,-4.303265E0,1.272004E1,-1.3416041E-1,8.1240565E-2,-0E0,-1.5224828E-1,6.250153E-9,4.9625784E-2,-3.9740287E-2,8.4020965E-2,-1.1416985E-1,6.811459E-2,-1.5605915E-1,7.905194E-2,2.7049635E-2,-1.3684765E-1,6.646E-2,4.226059E-2,-1.5761875E-1],"split_indices":[1,4,3,4,4,4,7,4,0,8,3,7,3,0,0,4,0,0,6,3,0,8,4,1,3,7,0,0,0,1,0,1,4,3,0,0,0,0,8,0,0,0,0,0,0,0,0,0,0,0,0],"split_type":[0,0,0,0,0,0,0,0,0,0,0,0,0,0,0,0,0,0,0,0,0,0,0,0,0,0,0,0,0,0,0,0,0,0,0,0,0,0,0,0,0,0,0,0,0,0,0,0,0,0,0],"sum_hessian":[3.7984903E2,1.7324266E2,2.0660638E2,1.1138334E2,6.185932E1,1.6708789E2,3.9518482E1,1.06816864E2,4.5664706E0,5.0156185E1,1.1703137E1,1.4057097E2,2.6516922E1,3.7685417E1,1.8330637E0,9.783564E1,8.981229E0,4.350979E1,6.646395E0,1.059612E1,1.1070182E0,1.0889083E2,3.1680141E1,5.4074097E0,2.1109512E1,9.563716E1,2.198476E0,3.4087157E0,3.2376792E0,3.0785472E0,7.5175724E0,4.904987E0,1.0398585E2,2.3822544E1,7.8575974E0,3.5455062E0,1.8619034E0,1.1793913E1,9.3155985E0,2.3170837E1,7.2466324E1,1.5054404E0,1.5731069E0,1.5941184E0,3.3108687E0,4.6235474E1,5.7750374E1,4.3870907E0,1.9435453E1,7.2685437E0,2.0470545E0],"tree_param":{"num_deleted":"0","num_feature":"9","num_nodes":"51","size_leaf_vector":"1"}},{"base_weights":[2.7615473E-2,-1.3263229E-1,5.498394E-1,1.16167516E-1,-5.1358736E-1,6.3926494E-1,-6.179825E-1,3.8277397E-1,-2.4078867E-1,-1.2669303E-1,-3.294044E-1,6.871294E-1,-9.4457686E-2,-1.3681607E-1,5.3831887E-2,-8.447284E-1,4.6848345E-1,-7.606181E-1,4.507912E-1,-1.6346137E-1,-2.4481237E-1,8.5086673E-1,4.5615762E-1,6.60025E-2,-1.5044981E-1,5.454322E-1,-7.345084E-1,-1.2372621E0,3.99862E-1,-1.19326904E-1,7.033098E-1,7.835893E-2,-6.5808713E-1,6.4609164E-1,1.1656061E-1,5.872079E-1,-1.4773422E-1,-1.0392893E-1,6.919521E-2,1.5705E-2,-1.3076307E-1,-1.5689272E-1,-2.5347313E-2,7.990444E-2,-1.0030388E-1,3.490223E-2,1.3752194E-1,9.075211E-2,-1.4952068E-2,-1.237697E-1,-2.1651166E-2,-1.3111919E-1,9.21688E-2,-0E0,8.203625E-2],"categories":[],"categories_nodes":[],"categories_segments":[],"categories_sizes":[],"default_left":[0,0,0,0,0,0,0,0,0,0,0,0,0,0,0,0,0,0,0,0,0,0,0,0,0,0,0,0,0,0,0,0,0,0,0,0,0,0,0,0,0,0,0,0,0,0,0,0,0,0,0,0,0,0,0],"id":17,"left_children":[1,3,5,7,9,11,13,15,17,-1,19,21,-1,-1,-1,23,25,27,29,-1,31,33,35,-1,-1,37,39,41,43,-1,45,47,49,51,-1,53,-1,-1,-1,-1,-1,-1,-1,-1,-1,-1,-1,-1,-1,-1,-1,-1,-1,-1,-1],"loss_changes":[3.1658459E1,2.7432295E1,9.510302E0,1.6627089E1,1.1607159E1,6.068989E0,4.509412E0,1.0598948E1,2.6866617E1,0E0,7.283963E0,2.30476E0,0E0,0E0,0E0,4.9522376E0,8.870476E0,2.4248262E1,1.2167613E1,0E0,1.1368064E1,4.8041153E-1,8.307547E0,0E0,0E0,7.567419E0,2.471495E0,3.1840553E0,4.992346E0,0E0,4.623785E0,7.2427363E0,6.660652E0,6.786681E0,0E0,2.5893936E0,0E0,0E0,0E0,0E0,0E0,0E0,0E0,0E0,0E0,0E0,0E0,0E0,0E0,0E0,0E0,0E0,0E0,0E0,0E0],"parents":[2147483647,0,0,1,1,2,2,3,3,4,4,5,5,6,6,7,7,8,8,10,10,11,11,15,15,16,16,17,17,18,18,20,20,21,21,22,22,25,25,26,26,27,27,28,28,30,30,31,31,32,32,33,33,35,35],"right_children":[2,4,6,8,10,12,14,16,18,-1,20,22,-1,-1,-1,24,26,28,30,-1,32,34,36,-1,-1,38,40,42,44,-1,46,48,50,52,-1,54,-1,-1,-1,-1,-1,-1,-1,-1,-1,-1,-1,-1,-1,-1,-1,-1,-1,-1,-1],"split_conditions":[2.867826E1,-2.1594439E1,1.6130518E1,-2.962206E0,1.5316559E1,-1.631832E1,3.6919327E1,-1.9328967E-8,-2.3250238E1,-1.2669303E-1,-2.1084467E1,7.28309E0,-9.4457686E-2,-1.3681607E-1,5.3831887E-2,-1.2289895E-7,6.7138444E-8,1.6555688E-8,3.8221066E0,-1.6346137E-1,-1.8638525E1,-1.5827579E-9,5.6513386E-8,6.60025E-2,-1.5044981E-1,-3.0317926E1,6.999139E1,1.3272288E1,-3.9555143E-8,-1.19326904E-1,4.246574E-8,-2.5707996E-8,2.3549835E1,3.003708E1,1.1656061E-1,9.998883E0,-1.4773422E-1,-1.0392893E-1,6.919521E-2,1.5705E-2,-1.3076307E-1,-1.5689272E-1,-2.5347313E-2,7.990444E-2,-1.0030388E-1,3.490223E-2,1.3752194E-1,9.075211E-2,-1.4952068E-2,-1.237697E-1,-2.1651166E-2,-1.3111919E-1,9.21688E-2,-0E0,8.203625E-2],"split_indices":[1,0,4,4,1,0,1,8,0,0,0,4,0,0,0,7,7,8,4,0,0,8,7,0,0,0,2,4,7,0,7,7,1,1,0,4,0,0,0,0,0,0,0,0,0,0,0,0,0,0,0,0,0,0,0],"split_type":[0,0,0,0,0,0,0,0,0,0,0,0,0,0,0,0,0,0,0,0,0,0,0,0,0,0,0,0,0,0,0,0,0,0,0,0,0,0,0,0,0,0,0,0,0,0,0,0,0,0,0,0,0,0,0],"sum_hessian":[3.7517776E2,2.867673E2,8.8410484E1,1.7302315E2,1.1374413E2,8.268623E1,5.7242494E0,9.9706604E1,7.331655E1,2.5884018E1,8.7860115E1,8.062211E1,2.0641258E0,3.969511E0,1.7547382E0,5.873132E0,9.383347E1,4.217622E1,3.1140333E1,5.3347287E0,8.252539E1,4.525615E1,3.5365963E1,1.1932852E0,4.6798472E0,8.880064E1,5.032832E0,3.0131447E1,1.2044773E1,4.0263104E0,2.7114023E1,4.5977627E1,3.6547764E1,2.247005E1,2.2786098E1,3.3450676E1,1.9152845E0,2.7809114E0,8.601973E1,1.3739334E0,3.6588988E0,2.620319E1,3.9282568E0,1.0241964E1,1.8028085E0,1.595227E1,1.1161754E1,1.0540414E1,3.543721E1,1.8451887E1,1.8095877E1,1.3179193E0,2.115213E1,5.950367E0,2.7500309E1],"tree_param":{"num_deleted":"0","num_feature":"9","num_nodes":"55","size_leaf_vector":"1"}},{"base_weights":[5.5959016E-2,1.7024884E-1,-5.257979E-1,7.272206E-2,7.4659497E-1,-1.0196612E0,-1.2637925E-1,1.2045368E-1,-7.754205E-1,2.6972702E-1,8.587145E-1,-1.2867472E-1,5.808277E-2,1.7151898E-1,-6.8551165E-1,-1.19479984E-1,1.5489508E-1,-1.306037E-1,8.57745E-2,-1.8714398E-1,6.442302E-1,1.12909E-1,3.8255388E-1,5.236923E-1,-2.5256062E-1,-1.2570128E-1,2.0055449E-1,3.2678807E-1,-5.7681065E-2,-6.866745E-2,7.285334E-2,-1.6340349E-2,8.1316626E-1,-0E0,9.7709894E-2,-7.4428625E-2,7.7025497E-1,-6.5638363E-1,3.7833592E-1,8.305128E-2,-6.336753E-2,-7.24795E-3,5.1920723E-2,-5.8904435E-2,1.54430885E-2,2.8721021E-2,1.10274605E-1,-6.407504E-2,8.232694E-2,1.0528065E-1,-0E0,5.7383012E-2,-1.1416386E-1,7.727072E-2,-0E0],"categories":[],"categories_nodes":[],"categories_segments":[],"categories_sizes":[],"default_left":[0,0,0,0,0,0,0,0,0,0,0,0,0,0,0,0,0,0,0,0,0,0,0,0,0,0,0,0,0,0,0,0,0,0,0,0,0,0,0,0,0,0,0,0,0,0,0,0,0,0,0,0,0,0,0],"id":18,"left_children":[1,3,5,7,9,11,13,15,17,19,21,-1,-1,23,25,-1,27,-1,29,-1,31,-1,33,35,37,-1,39,41,43,-1,-1,-1,45,47,-1,-1,49,51,53,-1,-1,-1,-1,-1,-1,-1,-1,-1,-1,-1,-1,-1,-1,-1,-1],"loss_changes":[2.4590012E1,1.7127125E1,1.1377584E1,1.0603958E1,1.7683849E0,4.64324E0,6.0347323E0,9.876016E0,4.8175583E0,7.225138E0,1.2899361E0,0E0,0E0,3.5417206E0,5.069265E0,0E0,9.17787E0,0E0,1.8138231E0,0E0,1.5283756E0,0E0,1.6870395E0,4.0751677E0,2.8011062E0,0E0,1.9028522E0,6.9339695E0,9.832114E0,0E0,0E0,0E0,5.514145E-3,2.2980576E0,0E0,0E0,1.4461627E0,3.0970333E0,4.8132604E-1,0E0,0E0,0E0,0E0,0E0,0E0,0E0,0E0,0E0,0E0,0E0,0E0,0E0,0E0,0E0,0E0],"parents":[2147483647,0,0,1,1,2,2,3,3,4,4,5,5,6,6,7,7,8,8,9,9,10,10,13,13,14,14,16,16,18,18,20,20,22,22,23,23,24,24,26,26,27,27,28,28,32,32,33,33,36,36,37,37,38,38],"right_children":[2,4,6,8,10,12,14,16,18,20,22,-1,-1,24,26,-1,28,-1,30,-1,32,-1,34,36,38,-1,40,42,44,-1,-1,-1,46,48,-1,-1,50,52,54,-1,-1,-1,-1,-1,-1,-1,-1,-1,-1,-1,-1,-1,-1,-1,-1],"split_conditions":[-1.8599901E1,2.8810522E1,4.5876323E-8,9.421043E-4,-2.4480219E1,3.1033646E1,-1.631832E1,-3.0058725E1,1.2128832E-3,2.1193235E-4,6.167067E-10,-1.2867472E-1,5.808277E-2,3.8786566E-10,2.247304E-7,-1.19479984E-1,-1.4634326E-4,-1.306037E-1,8.244943E-9,-1.8714398E-1,-9.197006E-8,1.12909E-1,3.1821655E1,-1.7653898E1,2.5886843E1,-1.2570128E-1,-4.567277E-9,3.167159E-4,1.0690778E1,-6.866745E-2,7.285334E-2,-1.6340349E-2,5.331008E-9,9.223976E-9,9.7709894E-2,-7.4428625E-2,-2.5852842E-4,-1.575084E-3,-1.8307783E1,8.305128E-2,-6.336753E-2,-7.24795E-3,5.1920723E-2,-5.8904435E-2,1.54430885E-2,2.8721021E-2,1.10274605E-1,-6.407504E-2,8.232694E-2,1.0528065E-1,-0E0,5.7383012E-2,-1.1416386E-1,7.727072E-2,-0E0],"split_indices":[0,3,7,5,0,3,0,0,5,5,7,0,0,8,7,0,6,0,8,0,7,0,3,0,3,0,8,5,3,0,0,0,7,8,0,0,6,6,0,0,0,0,0,0,0,0,0,0,0,0,0,0,0,0,0],"split_type":[0,0,0,0,0,0,0,0,0,0,0,0,0,0,0,0,0,0,0,0,0,0,0,0,0,0,0,0,0,0,0,0,0,0,0,0,0,0,0,0,0,0,0,0,0,0,0,0,0,0,0,0,0,0,0],"sum_hessian":[3.7085156E2,3.1088712E2,5.996445E1,2.6704245E2,4.384466E1,2.5963041E1,3.4001408E1,2.5372577E2,1.3316666E1,9.416858E0,3.4427807E1,2.4748213E1,1.2148287E0,2.1929173E1,1.2072236E1,6.502612E0,2.4722316E2,9.603048E0,3.7136178E0,1.0673386E0,8.349519E0,2.6129383E1,8.298422E0,1.2459479E1,9.469693E0,8.500938E0,3.5712976E0,1.3763887E2,1.0958429E2,1.2865088E0,2.427109E0,1.0459371E0,7.3035817E0,4.7192774E0,3.5791447E0,1.7138261E0,1.0745653E1,6.171913E0,3.2977798E0,2.4533184E0,1.1179793E0,3.2722935E1,1.0491594E2,3.291648E1,7.666781E1,2.4125738E0,4.891008E0,2.8167253E0,1.9025521E0,9.1474695E0,1.5981832E0,1.052485E0,5.119428E0,1.7383089E0,1.5594709E0],"tree_param":{"num_deleted":"0","num_feature":"9","num_nodes":"55","size_leaf_vector":"1"}},{"base_weights":[2.5316296E-2,1.2727083E-1,-5.551424E-1,3.8707875E-2,6.7428285E-1,6.0160655E-1,-8.1295145E-1,2.6296955E-1,-2.6711383E-1,8.6281556E-1,4.406752E-1,7.7922976E-1,-0E0,-1.6635148E-2,-1.0580823E0,1.4095703E-1,9.31605E-1,3.2526277E-2,-8.8476926E-1,1.1473114E-1,3.354873E-1,4.5292977E-2,1.1039724E-1,-0E0,1.1325185E-1,-1.07628584E-1,5.1774985E-1,-0E0,-1.2606266E-1,-2.575161E-1,3.5047218E-1,9.937251E-1,1.1998258E-2,-8.4465164E-1,2.5138476E-1,-1.5310146E-1,-2.792142E-1,1.0232913E-1,-2.7746335E-1,-1.6981316E-1,2.9381827E-1,1.0722428E-1,-9.620132E-3,2.9942693E-2,-1.17438994E-1,8.247526E-2,-4.9613133E-2,1.1744973E-1,1.7910015E-3,-1.3278237E-1,1.4805846E-2,8.828174E-4,7.179048E-2,3.6145926E-2,-1.1367659E-1,-1.452437E-1,5.6849618E-2,9.0541534E-2,-2.4374777E-2],"categories":[],"categories_nodes":[],"categories_segments":[],"categories_sizes":[],"default_left":[0,0,0,0,0,0,0,0,0,0,0,0,0,0,0,0,0,0,0,0,0,0,0,0,0,0,0,0,0,0,0,0,0,0,0,0,0,0,0,0,0,0,0,0,0,0,0,0,0,0,0,0,0,0,0,0,0,0,0],"id":19,"left_children":[1,3,5,7,9,11,13,15,17,19,21,23,-1,25,27,29,31,33,35,-1,37,39,-1,-1,-1,-1,41,-1,-1,43,45,47,-1,49,51,-1,53,-1,55,-1,57,-1,-1,-1,-1,-1,-1,-1,-1,-1,-1,-1,-1,-1,-1,-1,-1,-1,-1],"loss_changes":[2.0759687E1,1.4289249E1,1.5934313E1,1.7918282E1,1.0606251E0,1.3424222E0,7.976837E0,1.183276E1,2.0694216E1,7.823429E-1,3.7800708E0,1.3685255E0,0E0,5.917359E0,1.5313034E0,1.08820715E1,6.4564705E-1,1.4062025E1,8.983101E0,0E0,2.376825E0,4.5439544E0,0E0,0E0,0E0,0E0,2.1800342E0,0E0,0E0,1.7980934E1,2.4939102E1,1.3534355E-1,0E0,4.918215E0,5.193564E0,0E0,7.439113E0,0E0,2.8100538E0,0E0,3.2431989E0,0E0,0E0,0E0,0E0,0E0,0E0,0E0,0E0,0E0,0E0,0E0,0E0,0E0,0E0,0E0,0E0,0E0,0E0],"parents":[2147483647,0,0,1,1,2,2,3,3,4,4,5,5,6,6,7,7,8,8,9,9,10,10,11,11,13,13,14,14,15,15,16,16,17,17,18,18,20,20,21,21,26,26,29,29,30,30,31,31,33,33,34,34,36,36,38,38,40,40],"right_children":[2,4,6,8,10,12,14,16,18,20,22,24,-1,26,28,30,32,34,36,-1,38,40,-1,-1,-1,-1,42,-1,-1,44,46,48,-1,50,52,-1,54,-1,56,-1,58,-1,-1,-1,-1,-1,-1,-1,-1,-1,-1,-1,-1,-1,-1,-1,-1,-1,-1],"split_conditions":[1.4344286E2,2.8810522E1,-2.2769522E1,-2.962206E0,8.536788E0,1.6884837E2,-5.4607826E-4,2.1419006E1,-1.7029082E-5,1.1654554E2,3.5295025E1,1.5017815E2,-0E0,1.1577271E-3,1.16568146E-4,3.2105818E-4,-4.303265E0,3.6331198E0,2.4386717E1,1.1473114E-1,6.735631E-5,2.1193235E-4,1.1039724E-1,-0E0,1.1325185E-1,-1.07628584E-1,-1.2543224E1,-0E0,-1.2606266E-1,-3.2995886E-4,1.06842995E2,8.9111336E-4,1.1998258E-2,1.2965904E2,2.0469591E1,-1.5310146E-1,5.236852E-4,1.0232913E-1,1.2061275E-3,-1.6981316E-1,3.2105818E-4,1.0722428E-1,-9.620132E-3,2.9942693E-2,-1.17438994E-1,8.247526E-2,-4.9613133E-2,1.1744973E-1,1.7910015E-3,-1.3278237E-1,1.4805846E-2,8.828174E-4,7.179048E-2,3.6145926E-2,-1.1367659E-1,-1.452437E-1,5.6849618E-2,9.0541534E-2,-2.4374777E-2],"split_indices":[2,3,4,4,4,2,6,3,6,2,1,2,0,5,5,5,4,4,3,0,6,5,0,0,0,0,4,0,0,6,2,5,0,2,3,0,5,0,6,0,5,0,0,0,0,0,0,0,0,0,0,0,0,0,0,0,0,0,0],"split_type":[0,0,0,0,0,0,0,0,0,0,0,0,0,0,0,0,0,0,0,0,0,0,0,0,0,0,0,0,0,0,0,0,0,0,0,0,0,0,0,0,0,0,0,0,0,0,0,0,0,0,0,0,0,0,0,0,0,0,0],"sum_hessian":[3.526846E2,3.0097266E2,5.171194E1,2.601986E2,4.077405E1,8.993392E0,4.2718548E1,1.5096284E2,1.0923578E2,2.075545E1,2.00186E1,7.3545556E0,1.6388364E0,1.0598437E1,3.212011E1,1.287544E2,2.220844E1,7.3431984E1,3.580379E1,1.546999E1,5.2854595E0,1.217469E1,7.843911E0,1.5579251E0,5.796631E0,4.0362725E0,6.562165E0,1.0482868E0,3.1071823E1,4.362704E1,8.512736E1,2.0077908E1,2.130533E0,1.3968175E1,5.946381E1,1.9795496E1,1.6008295E1,3.0086777E0,2.2767818E0,1.0941706E0,1.108052E1,4.122225E0,2.43994E0,2.5889486E1,1.7737553E1,5.83119E1,2.6815458E1,1.9052572E1,1.025336E0,1.0835888E1,3.1322868E0,3.701634E1,2.2447472E1,8.557094E0,7.4512014E0,1.0909693E0,1.1858125E0,5.877263E0,5.2032566E0],"tree_param":{"num_deleted":"0","num_feature":"9","num_nodes":"59","size_leaf_vector":"1"}},{"base_weights":[6.020273E-2,-6.2042892E-2,4.9441004E-1,4.8015207E-2,-6.9304883E-1,-2.0320569E-1,6.200959E-1,2.881953E-1,-1.4603452E-1,1.9724253E-1,-9.3150216E-1,-5.761631E-1,8.008213E-2,6.585729E-1,-7.452194E-2,-5.284957E-1,3.458724E-1,-3.4369707E-1,1.0285747E-1,-4.5453048E-1,8.845722E-2,5.6740634E-2,-1.2382978E-1,1.05207115E-1,-9.656462E-1,5.259434E-1,1.0985382E-1,-1.1837481E-1,2.1705566E-2,3.8898945E-1,-1.03555515E-1,-1.2790588E-1,-1.2200599E-1,4.73763E-1,-6.116308E-1,-1.0508824E-1,3.795385E-2,-1.4849762E-3,5.7896767E-2,-1.6034387E-1,-0E0,6.375925E-1,-3.866667E-1,-7.867787E-2,5.058378E-2,5.0929446E-2,-4.254507E-2,7.462179E-2,-8.469515E-2,-8.6741075E-2,4.1723493E-2,1.013631E-1,4.780034E-2,-1.355375E-1,7.817341E-2],"categories":[],"categories_nodes":[],"categories_segments":[],"categories_sizes":[],"default_left":[0,0,0,0,0,0,0,0,0,0,0,0,0,0,0,0,0,0,0,0,0,0,0,0,0,0,0,0,0,0,0,0,0,0,0,0,0,0,0,0,0,0,0,0,0,0,0,0,0,0,0,0,0,0,0],"id":20,"left_children":[1,3,5,7,9,11,13,15,17,19,21,23,-1,25,-1,27,29,31,33,35,-1,-1,-1,37,39,41,-1,-1,-1,43,-1,-1,45,47,49,-1,-1,-1,-1,-1,-1,51,53,-1,-1,-1,-1,-1,-1,-1,-1,-1,-1,-1,-1],"loss_changes":[1.87464E1,1.9206394E1,7.047529E0,1.0888036E1,9.127171E0,4.1045566E0,3.4752998E0,4.9552135E0,6.399277E0,3.5867252E0,7.4118366E0,2.7889686E0,0E0,1.669508E0,0E0,2.854775E0,5.277769E0,1.1727867E1,1.4922611E1,1.8862503E0,0E0,0E0,0E0,3.6960685E-1,2.7514215E0,5.0466805E0,0E0,0E0,0E0,5.3727903E0,0E0,0E0,8.079973E0,8.221822E0,2.971014E0,0E0,0E0,0E0,0E0,0E0,0E0,1.5641041E0,4.932192E0,0E0,0E0,0E0,0E0,0E0,0E0,0E0,0E0,0E0,0E0,0E0,0E0],"parents":[2147483647,0,0,1,1,2,2,3,3,4,4,5,5,6,6,7,7,8,8,9,9,10,10,11,11,13,13,15,15,16,16,17,17,18,18,19,19,23,23,24,24,25,25,29,29,32,32,33,33,34,34,41,41,42,42],"right_children":[2,4,6,8,10,12,14,16,18,20,22,24,-1,26,-1,28,30,32,34,36,-1,-1,-1,38,40,42,-1,-1,-1,44,-1,-1,46,48,50,-1,-1,-1,-1,-1,-1,52,54,-1,-1,-1,-1,-1,-1,-1,-1,-1,-1,-1,-1],"split_conditions":[2.867826E1,-1.8638525E1,2.384401E1,-2.8194298E-4,-6.346133E-4,3.606191E1,1.4425967E-3,-2.7839539E1,1.817997E1,1.1577271E-3,-3.8578007E0,2.9024408E1,8.008213E-2,3.5295025E1,-7.452194E-2,2.027827E-8,9.421043E-4,3.2498626E-4,5.2596594E-4,1.8379463E-8,8.845722E-2,5.6740634E-2,-1.2382978E-1,1.8992894E-8,-1.901207E1,6.1462354E-4,1.0985382E-1,-1.1837481E-1,2.1705566E-2,-5.3716636E-1,-1.03555515E-1,-1.2790588E-1,1.6925668E0,3.780291E-4,2.7284798E1,-1.0508824E-1,3.795385E-2,-1.4849762E-3,5.7896767E-2,-1.6034387E-1,-0E0,4.6867653E-4,1.0119904E-8,-7.867787E-2,5.058378E-2,5.0929446E-2,-4.254507E-2,7.462179E-2,-8.469515E-2,-8.6741075E-2,4.1723493E-2,1.013631E-1,4.780034E-2,-1.355375E-1,7.817341E-2],"split_indices":[1,0,3,6,6,1,5,0,3,5,3,1,0,1,0,8,5,5,5,8,0,0,0,8,0,6,0,0,0,3,0,0,3,6,3,0,0,0,0,0,0,5,8,0,0,0,0,0,0,0,0,0,0,0,0],"split_type":[0,0,0,0,0,0,0,0,0,0,0,0,0,0,0,0,0,0,0,0,0,0,0,0,0,0,0,0,0,0,0,0,0,0,0,0,0,0,0,0,0,0,0,0,0,0,0,0,0,0,0,0,0,0,0],"sum_hessian":[3.4885968E2,2.7181418E2,7.704547E1,2.3129443E2,4.051976E1,1.1194443E1,6.585103E1,1.0422488E2,1.2706956E2,8.202663E0,3.2317097E1,8.3870325E0,2.80741E0,6.448938E1,1.3616552E0,6.099304E0,9.812557E1,7.16624E1,5.5407158E1,3.5423436E0,4.66032E0,2.6284695E0,2.9688627E1,2.7957065E0,5.591326E0,4.6645256E1,1.7844118E1,3.7984667E0,2.3008375E0,9.553469E1,2.5908833E0,1.5105833E1,5.6556564E1,3.698431E1,1.8422848E1,2.5179942E0,1.0243495E0,1.7351058E0,1.0606008E0,3.8052127E0,1.7861134E0,4.2120323E1,4.5249352E0,3.6908484E0,9.184384E1,1.6613386E1,3.9943176E1,3.281503E1,4.169283E0,1.6541718E1,1.8811308E0,1.8313778E1,2.3806545E1,2.7913826E0,1.7335527E0],"tree_param":{"num_deleted":"0","num_feature":"9","num_nodes":"55","size_leaf_vector":"1"}},{"base_weights":[2.5743311E-2,-4.1791344E-1,1.3982691E-1,-1.2173657E-1,-1.9333553E-1,8.073335E-2,1.0487838E-1,1.2435533E0,-3.5506675E-1,1.7236309E-1,-5.371355E-1,1.9999862E-2,2.255988E-1,-1.2434761E-1,-8.237774E-2,1.4932653E-1,1.4218716E-1,-9.2108834E-1,6.9409855E-2,2.3875053E-1,-1.2183783E-1,-5.142278E-2,2.7847153E-1,-1.0083015E0,-3.556338E-1,4.395596E-1,-9.8744504E-2,9.500705E-2,-1.2062222E-2,-1.05676755E-1,1.0157123E-2,6.591184E-2,1.3891109E-2,-3.376726E-2,-1.2784752E-1,3.164465E-2,-9.14638E-2,-1.2449125E-2,8.072843E-2],"categories":[],"categories_nodes":[],"categories_segments":[],"categories_sizes":[],"default_left":[0,0,0,0,0,0,0,0,0,0,0,0,0,0,0,0,0,0,0,0,0,0,0,0,0,0,0,0,0,0,0,0,0,0,0,0,0,0,0],"id":21,"left_children":[1,3,5,-1,7,9,-1,11,13,15,17,-1,-1,-1,19,-1,21,23,25,27,-1,29,31,33,35,37,-1,-1,-1,-1,-1,-1,-1,-1,-1,-1,-1,-1,-1],"loss_changes":[1.6531841E1,8.952137E0,1.1528645E1,0E0,1.1581381E1,1.3755439E1,0E0,2.727736E0,8.589862E0,6.578435E0,7.650962E0,0E0,0E0,0E0,1.1323261E1,0E0,5.6349044E0,1.9079018E-1,4.2016044E0,5.630534E0,0E0,1.0818956E1,5.456339E0,4.2445946E-1,1.4784471E0,1.646243E0,0E0,0E0,0E0,0E0,0E0,0E0,0E0,0E0,0E0,0E0,0E0,0E0,0E0],"parents":[2147483647,0,0,1,1,2,2,4,4,5,5,7,7,8,8,9,9,10,10,14,14,16,16,17,17,18,18,19,19,21,21,22,22,23,23,24,24,25,25],"right_children":[2,4,6,-1,8,10,-1,12,14,16,18,-1,-1,-1,20,-1,22,24,26,28,-1,30,32,34,36,38,-1,-1,-1,-1,-1,-1,-1,-1,-1,-1,-1,-1,-1],"split_conditions":[1.62676E1,3.618834E-4,3.5295025E1,-1.2173657E-1,3.8013107E-4,-1.8599901E1,1.0487838E-1,6.923378E-9,5.599191E-4,1.6314653E1,1.2206561E-7,1.9999862E-2,2.255988E-1,-1.2434761E-1,8.2157814E-4,1.4932653E-1,-2.3250238E1,1.4425967E-3,-3.6405344E-4,-3.185058E-8,-1.2183783E-1,2.2782064E-4,1.0380465E2,2.7780214E-4,1.5121638E-3,1.2417772E-3,-9.8744504E-2,9.500705E-2,-1.2062222E-2,-1.05676755E-1,1.0157123E-2,6.591184E-2,1.3891109E-2,-3.376726E-2,-1.2784752E-1,3.164465E-2,-9.14638E-2,-1.2449125E-2,8.072843E-2],"split_indices":[1,5,1,0,5,0,0,7,5,1,7,0,0,0,5,0,0,5,6,7,0,5,2,5,5,5,0,0,0,0,0,0,0,0,0,0,0,0,0],"split_type":[0,0,0,0,0,0,0,0,0,0,0,0,0,0,0,0,0,0,0,0,0,0,0,0,0,0,0,0,0,0,0,0,0,0,0,0,0,0,0],"sum_hessian":[3.2780676E2,6.599613E1,2.618106E2,1.609086E1,4.9905273E1,2.4429002E2,1.7520603E1,4.4192724E0,4.5486E1,2.136776E2,3.0612425E1,2.2858431E0,2.1334293E0,1.1537586E1,3.3948414E1,4.6109195E0,2.0906667E2,1.9004965E1,1.1607461E1,2.5539066E1,8.409348E0,8.521701E1,1.2384966E2,1.5449079E1,3.5558867E0,8.830899E0,2.776561E0,9.594691E0,1.5944376E1,1.1823033E1,7.3393974E1,4.1628193E1,8.222147E1,2.7612996E0,1.2687778E1,1.1481614E0,2.4077253E0,2.445339E0,6.385561E0],"tree_param":{"num_deleted":"0","num_feature":"9","num_nodes":"39","size_leaf_vector":"1"}},{"base_weights":[6.613307E-2,1.5036573E-1,-5.0459015E-1,-2.4068895E-1,2.5035322E-1,-1.212061E-1,-9.321388E-3,-1.2056609E-1,-9.043318E-3,1.7838407E-1,6.2185997E-1,-1.04231566E-1,2.846209E-1,1.1856296E0,-1.6021551E-1,2.2692572E-1,-5.8744454E-1,6.710364E-1,-2.909113E-2,4.5436946E-1,-8.786319E-2,2.64658E-2,1.9714218E-1,3.7563902E-1,-4.47443E-1,-1.2978715E-1,2.4870914E-1,3.9812562E-1,-1.018234E0,2.1674679E-1,7.514089E-1,3.454707E-2,8.02182E-1,8.030365E-2,-1.0571724E-1,-7.774669E-2,1.07297204E-1,4.6842735E-2,4.5808004E-3,8.090819E-2,-0E0,-1.4524935E-1,-2.7942983E-2,-7.522042E-2,8.2432E-2,1.0561567E-1,5.292168E-2,4.20526E-2,-8.0756724E-2,1.09853216E-1,1.2397534E-2],"categories":[],"categories_nodes":[],"categories_segments":[],"categories_sizes":[],"default_left":[0,0,0,0,0,0,0,0,0,0,0,0,0,0,0,0,0,0,0,0,0,0,0,0,0,0,0,0,0,0,0,0,0,0,0,0,0,0,0,0,0,0,0,0,0,0,0,0,0,0,0],"id":22,"left_children":[1,3,5,7,9,-1,11,-1,13,15,17,-1,19,21,23,25,27,29,-1,31,-1,-1,-1,33,35,-1,37,39,41,43,45,47,49,-1,-1,-1,-1,-1,-1,-1,-1,-1,-1,-1,-1,-1,-1,-1,-1,-1,-1],"loss_changes":[1.5656955E1,1.12528E1,1.0906535E1,1.038252E1,5.7381344E0,0E0,6.446352E0,0E0,7.9555516E0,7.13129E0,1.8219213E0,0E0,3.136064E0,1.4466267E0,6.51352E0,5.1970854E0,5.233721E0,7.7009773E-1,0E0,1.9029312E0,0E0,0E0,0E0,6.2381153E0,9.050557E0,0E0,5.8257093E0,4.338829E-1,7.6768494E-1,3.2398014E0,5.801277E-1,1.9943284E0,3.4263897E-1,0E0,0E0,0E0,0E0,0E0,0E0,0E0,0E0,0E0,0E0,0E0,0E0,0E0,0E0,0E0,0E0,0E0,0E0],"parents":[2147483647,0,0,1,1,2,2,3,3,4,4,6,6,8,8,9,9,10,10,12,12,13,13,14,14,15,15,16,16,17,17,19,19,23,23,24,24,26,26,27,27,28,28,29,29,30,30,31,31,32,32],"right_children":[2,4,6,8,10,-1,12,-1,14,16,18,-1,20,22,24,26,28,30,-1,32,-1,-1,-1,34,36,-1,38,40,42,44,46,48,50,-1,-1,-1,-1,-1,-1,-1,-1,-1,-1,-1,-1,-1,-1,-1,-1,-1,-1],"split_conditions":[-1.851154E1,1.62676E1,5.9093264E-8,3.618834E-4,3.1321558E1,-1.212061E-1,2.3549835E1,-1.2056609E-1,3.8013107E-4,4.0667775E-4,9.061363E-8,-1.04231566E-1,1.5121638E-3,3.7665616E-4,-3.185058E-8,9.769927E-5,-1.0048873E-7,1.726885E-4,-2.909113E-2,1.3000314E-3,-8.786319E-2,2.64658E-2,1.9714218E-1,7.2060636E-4,4.0667775E-4,-1.2978715E-1,5.30523E-4,-2.4721039E1,-2.2634363E1,3.3886684E1,4.7383984E-4,-1.6477554E1,-5.4607826E-4,8.030365E-2,-1.0571724E-1,-7.774669E-2,1.07297204E-1,4.6842735E-2,4.5808004E-3,8.090819E-2,-0E0,-1.4524935E-1,-2.7942983E-2,-7.522042E-2,8.2432E-2,1.0561567E-1,5.292168E-2,4.20526E-2,-8.0756724E-2,1.09853216E-1,1.2397534E-2],"split_indices":[0,1,7,5,1,0,1,0,5,6,7,0,5,5,7,5,7,5,0,5,0,0,0,5,6,0,5,0,0,1,5,0,6,0,0,0,0,0,0,0,0,0,0,0,0,0,0,0,0,0,0],"split_type":[0,0,0,0,0,0,0,0,0,0,0,0,0,0,0,0,0,0,0,0,0,0,0,0,0,0,0,0,0,0,0,0,0,0,0,0,0,0,0,0,0,0,0,0,0,0,0,0,0,0,0],"sum_hessian":[3.2743808E2,2.8632123E2,4.1116856E1,5.7281204E1,2.2904004E2,1.8771006E1,2.234585E1,1.1916966E1,4.536424E1,1.9349583E2,3.55442E1,5.58948E0,1.675637E1,4.366585E0,4.0997654E1,1.8284013E2,1.06557045E1,3.4232166E1,1.3120346E0,1.5035072E1,1.721298E0,2.1218708E0,2.244714E0,1.3732142E1,2.726551E1,2.1481268E0,1.80692E2,2.9529343E0,7.70277E0,6.240181E0,2.7991985E1,7.6341376E0,7.4009347E0,1.1449014E1,2.2831287E0,2.3879711E1,3.3857992E0,1.01078735E2,7.9613266E1,1.4513377E0,1.5015965E0,5.168996E0,2.5337746E0,1.907467E0,4.332714E0,1.606099E1,1.1930997E1,5.8511233E0,1.783014E0,5.386688E0,2.0142462E0],"tree_param":{"num_deleted":"0","num_feature":"9","num_nodes":"51","size_leaf_vector":"1"}},{"base_weights":[-1.48851955E-2,-6.57208E-2,1.02504514E-1,8.198655E-3,-5.7843554E-1,-1.0552151E0,4.8600115E-2,-4.5165993E-2,-1.20305255E-1,-1.4858948E-1,1.7564798E-2,2.6301056E-1,-1.6724725E-1,-1.0410669E-1,3.1754166E-1,1.515877E-1,7.794299E-1,-5.6480795E-1,7.5751364E-2,-9.699046E-2,5.0494605E-1,8.25293E-2,8.90161E-4,-0E0,1.0003854E-1,-1.06621005E-1,4.254493E-2,-1.3673855E-1,1.8963275E-2,8.039648E-2,-1.4508205E-2],"categories":[],"categories_nodes":[],"categories_segments":[],"categories_sizes":[],"default_left":[0,0,0,0,0,0,0,0,0,0,0,0,0,0,0,0,0,0,0,0,0,0,0,0,0,0,0,0,0,0,0],"id":23,"left_children":[1,3,-1,5,7,9,11,13,-1,-1,-1,15,17,-1,19,21,23,25,27,-1,29,-1,-1,-1,-1,-1,-1,-1,-1,-1,-1],"loss_changes":[1.3841878E1,1.1298242E1,0E0,1.0541879E1,8.887889E0,3.1762075E0,1.1461869E1,6.1943693E0,0E0,0E0,0E0,6.7183723E0,1.2023333E1,0E0,2.9351656E0,8.167052E0,1.8477678E0,1.6419952E1,8.223903E0,0E0,1.7605343E0,0E0,0E0,0E0,0E0,0E0,0E0,0E0,0E0,0E0,0E0],"parents":[2147483647,0,0,1,1,3,3,4,4,5,5,6,6,7,7,11,11,12,12,14,14,15,15,16,16,17,17,18,18,20,20],"right_children":[2,4,-1,6,8,10,12,14,-1,-1,-1,16,18,-1,20,22,24,26,28,-1,30,-1,-1,-1,-1,-1,-1,-1,-1,-1,-1],"split_conditions":[3.606191E1,-1.8599901E1,1.02504514E-1,-1.9390818E0,-9.89267E0,-1.901207E1,-2.962206E0,2.3305552E1,-1.20305255E-1,-1.4858948E-1,1.7564798E-2,2.1419006E1,-2.3599241E1,-1.0410669E-1,-1.7694801E1,1.1841601E0,-1.5065739E-8,1.6555688E-8,-4.4929195E-2,-9.699046E-2,3.8786566E-10,8.25293E-2,8.90161E-4,-0E0,1.0003854E-1,-1.06621005E-1,4.254493E-2,-1.3673855E-1,1.8963275E-2,8.039648E-2,-1.4508205E-2],"split_indices":[1,0,0,3,4,0,4,1,0,0,0,3,0,0,0,3,8,8,4,0,8,0,0,0,0,0,0,0,0,0,0],"split_type":[0,0,0,0,0,0,0,0,0,0,0,0,0,0,0,0,0,0,0,0,0,0,0,0,0,0,0,0,0,0,0],"sum_hessian":[3.0644315E2,2.911036E2,1.5339548E1,2.5415936E2,3.6944233E1,8.423417E0,2.4573595E2,1.7991627E1,1.8952608E1,7.295845E0,1.1275721E0,1.2420837E2,1.2152759E2,5.4398985E0,1.2551728E1,1.0341429E2,2.0794073E1,4.6496384E1,7.5031204E1,1.1661568E0,1.13855715E1,1.9890163E1,8.3524124E1,1.8206589E0,1.8973413E1,3.380932E1,1.2687064E1,4.1962514E0,7.083495E1,9.167052E0,2.2185197E0],"tree_param":{"num_deleted":"0","num_feature":"9","num_nodes":"31","size_leaf_vector":"1"}},{"base_weights":[-3.4697002E-3,-5.417465E-2,8.055137E-1,1.3174594E-2,-5.1638854E-1,-0E0,9.878938E-2,-7.846905E-2,3.5256535E-1,5.2347764E-2,-9.7776115E-1,1.0818221E-1,-3.6690056E-1,-9.239245E-2,4.1316518E-1,-2.5103334E-1,7.137275E-1,-3.2558218E-1,-1.19345225E-1,-2.4169487E-1,2.7433956E-1,-1.0920804E0,-9.826254E-3,9.114742E-1,2.3952578E-1,3.614113E-1,-1.1077837E-1,9.8408766E-2,-0E0,-9.888468E-2,3.118356E-2,1.2988395E-2,-1.4475572E-1,4.000587E-2,-1.2318618E-1,-1.4664643E-1,-1.2355876E-2,2.3866342E-2,-1.6582307E-1,4.804563E-2,1.4016485E-1,9.85701E-2,5.1258616E-3,6.8997286E-2,-1.073984E-2],"categories":[],"categories_nodes":[],"categories_segments":[],"categories_sizes":[],"default_left":[0,0,0,0,0,0,0,0,0,0,0,0,0,0,0,0,0,0,0,0,0,0,0,0,0,0,0,0,0,0,0,0,0,0,0,0,0,0,0,0,0,0,0,0,0],"id":24,"left_children":[1,3,5,7,9,-1,-1,11,13,15,17,19,21,-1,23,25,27,29,-1,31,33,35,37,39,41,43,-1,-1,-1,-1,-1,-1,-1,-1,-1,-1,-1,-1,-1,-1,-1,-1,-1,-1,-1],"loss_changes":[1.2227893E1,9.192853E0,5.816765E-1,7.949694E0,1.02570305E1,0E0,0E0,1.0757232E1,3.83565E0,3.6811445E0,8.5523605E-2,6.987777E0,1.9868576E1,0E0,3.9372835E0,5.4841194E0,3.969276E-1,1.3997557E0,0E0,1.4261713E1,8.070347E0,3.9840221E0,1.7411963E1,9.7119045E-1,4.4567113E0,9.296265E-1,0E0,0E0,0E0,0E0,0E0,0E0,0E0,0E0,0E0,0E0,0E0,0E0,0E0,0E0,0E0,0E0,0E0,0E0,0E0],"parents":[2147483647,0,0,1,1,2,2,3,3,4,4,7,7,8,8,9,9,10,10,11,11,12,12,14,14,15,15,16,16,17,17,19,19,20,20,21,21,22,22,23,23,24,24,25,25],"right_children":[2,4,6,8,10,-1,-1,12,14,16,18,20,22,-1,24,26,28,30,-1,32,34,36,38,40,42,44,-1,-1,-1,-1,-1,-1,-1,-1,-1,-1,-1,-1,-1,-1,-1,-1,-1,-1,-1],"split_conditions":[3.1821655E1,-1.8638525E1,-2.5819284E1,1.1847434E-8,-1.2543224E1,-0E0,9.878938E-2,-2.962206E0,-3.0058725E1,1.2417772E-3,-9.89267E0,-1.514125E1,-2.348612E1,-9.239245E-2,3.6762387E-4,-2.2769522E1,1.4425967E-3,-1.0182717E1,-1.19345225E-1,-1.8477943E1,8.2882325E-4,2.773083E1,6.5475483E-9,6.0602417E0,7.56652E0,1.6884837E2,-1.1077837E-1,9.8408766E-2,-0E0,-9.888468E-2,3.118356E-2,1.2988395E-2,-1.4475572E-1,4.000587E-2,-1.2318618E-1,-1.4664643E-1,-1.2355876E-2,2.3866342E-2,-1.6582307E-1,4.804563E-2,1.4016485E-1,9.85701E-2,5.1258616E-3,6.8997286E-2,-1.073984E-2],"split_indices":[3,0,0,8,4,0,0,4,0,5,4,4,0,0,5,4,5,4,0,4,5,3,8,4,3,2,0,0,0,0,0,0,0,0,0,0,0,0,0,0,0,0,0,0,0],"split_type":[0,0,0,0,0,0,0,0,0,0,0,0,0,0,0,0,0,0,0,0,0,0,0,0,0,0,0,0,0,0,0,0,0,0,0,0,0,0,0,0,0,0,0,0,0],"sum_hessian":[3.0478494E2,2.8777502E2,1.7009922E1,2.5082805E2,3.6946976E1,1.376878E0,1.5633043E1,1.9683664E2,5.399141E1,1.6348278E1,2.05987E1,1.1881131E2,7.802533E1,2.0093179E0,5.1982094E1,1.0994758E1,5.3535194E0,2.6630177E0,1.7935682E1,3.7352764E1,8.145854E1,2.4985447E1,5.3039883E1,1.2209837E1,3.9772255E1,5.738702E0,5.256056E0,4.089451E0,1.2640688E0,1.6544272E0,1.0085905E0,2.7749395E1,9.60337E0,7.789144E1,3.5671039E0,2.0535841E1,4.449606E0,4.619214E1,6.847744E0,5.7222624E0,6.4875746E0,8.564701E0,3.1207554E1,4.25982E0,1.478882E0],"tree_param":{"num_deleted":"0","num_feature":"9","num_nodes":"45","size_leaf_vector":"1"}},{"base_weights":[-2.2053812E-3,-8.310595E-2,5.157233E-1,8.410214E-2,-3.1072548E-1,6.0670674E-1,-3.8657367E-1,-7.861316E-2,4.6203247E-1,-4.9308267E-1,1.6937207E-1,4.2163438E-1,1.03559434E-1,-1.034257E-1,3.169335E-2,-1.3743594E-1,2.283848E-2,-1.1861101E-1,5.392267E-1,-6.763981E-1,1.8168667E-1,5.0826925E-1,-6.37905E-1,5.958254E-1,-1.966249E-1,3.6728123E-1,-2.669838E-1,6.965117E-1,1.5627299E-2,-1.264707E-1,-3.5331905E-1,-1.1914797E-1,4.19574E-1,7.557693E-1,-0E0,2.6323074E-1,-1.3321117E-1,7.0118123E-1,-3.0912442E-2,-7.5440204E-1,7.296195E-2,2.7059495E-2,1.6780677E-1,-1.496349E-1,-0E0,9.343627E-2,1.7783906E-2,7.8036755E-2,-1.2375716E-1,-4.457567E-3,-1.5057816E-1,7.0543885E-2,-8.308238E-2,-0E0,1.0262582E-1,-5.6078363E-2,8.2527824E-2,6.3654326E-2,-0E0,4.7448575E-3,9.8940976E-2,-0E0,-1.7282407E-1],"categories":[],"categories_nodes":[],"categories_segments":[],"categories_sizes":[],"default_left":[0,0,0,0,0,0,0,0,0,0,0,0,0,0,0,0,0,0,0,0,0,0,0,0,0,0,0,0,0,0,0,0,0,0,0,0,0,0,0,0,0,0,0,0,0,0,0,0,0,0,0,0,0,0,0,0,0,0,0,0,0,0,0],"id":25,"left_children":[1,3,5,7,9,11,13,15,17,19,21,23,-1,-1,-1,-1,25,-1,27,29,31,33,35,37,39,41,43,45,47,-1,49,-1,51,53,55,57,-1,59,-1,61,-1,-1,-1,-1,-1,-1,-1,-1,-1,-1,-1,-1,-1,-1,-1,-1,-1,-1,-1,-1,-1,-1,